svm_type c_svc
kernel_type rbf
gamma 5
nr_class 2
total_sv 979
rho 0.498931
label 0 1
nr_sv 323 656
SV
1 81:0.0520833 377:0.1 1591:0.25 1744:1 1797:0.0714286 1959:1 2354:0.0196078 2356:0.0322581 2536:0.0166667 2565:0.0625 2571:0.029703 2575:0.060241 2610:1 2715:0.0666667 2724:1 2732:0.0382166 2741:0.04 2743:0.0384615 2857:1 2859:0.00628931 3004:1 3387:1 3651:0.0526316 3692:0.666667 3836:0.0833333 3852:0.0196078 3979:0.142857 4538:0.107143 4929:1 5393:0.5 5455:0.181818 5710:1 5811:0.333333 6236:1 6254:1 6376:0.333333 6707:0.2 7263:1 7632:0.25 8152:0.0666667 8810:0.0666667 8977:0.2 9382:0.0285714 9552:1 10014:0.142857 10137:1 10425:1 11060:0.666667 11074:0.0588235 11132:0.125 11680:0.25 12367:0.0745342 12440:1 12544:0.030303 12609:0.25 12710:0.0909091 13042:0.5 13092:0.125 13122:0.5 14405:0.02 14567:0.0416667 14735:0.0526316 14777:0.333333 14925:0.1 15014:0.666667 15048:0.142857 15069:1 15150:0.0689655 15161:0.111111 15709:1 16155:0.0285714 16582:0.125 17397:0.0909091 17561:1 17754:1 17869:0.5 17897:0.2 17920:0.5 18792:0.166667 19165:1 19748:0.166667 19892:0.5 20253:0.25 21287:1 21429:0.1 21432:1 21553:1 21658:1 22020:1 22243:0.666667 22345:0.166667 22495:1 22662:1 22720:0.111111 22888:0.0909091 23258:0.133929 23701:0.1 23737:0.111111 23775:0.111111 23920:1 24359:0.5 24378:0.333333 
1 81:0.0833333 1520:0.5 1954:0.333333 1983:1 2237:0.333333 2265:0.5 2373:0.08 2389:0.0625 2462:0.5 2495:0.0454545 2552:1 2559:0.5 2565:0.0625 2571:0.039604 2575:0.0240964 2654:0.0909091 2715:0.0666667 2732:0.044586 2741:0.04 2837:0.0833333 2859:0.0251572 3077:1 3229:0.5 3341:0.5 3692:0.333333 3798:1 3846:0.0666667 3852:0.0588235 3901:1 3954:1 4538:0.0714286 4643:0.5 4764:0.25 5005:0.2 5291:0.25 5490:0.5 6005:0.125 6405:1 6652:0.0909091 7652:1 7816:0.5 8092:1 8104:0.0384615 8263:1 8296:0.25 8525:0.25 8742:1 8820:1 8902:1 9072:0.166667 9143:0.047619 9382:0.0285714 10160:1 10493:0.5 11168:1 11320:1 11371:0.0625 11641:0.0588235 11966:1 12087:0.0769231 12258:1 12367:0.0434783 12900:1 12957:0.166667 12978:1 13647:1 14402:0.25 14405:0.02 14567:0.0416667 14735:0.0526316 14759:1 14777:0.333333 15018:1 15046:0.285714 15150:0.0344828 15832:0.166667 16155:0.0285714 16434:1 16560:1 16682:1 16791:0.272727 17100:1 17194:0.0588235 17632:0.333333 17686:0.5 18313:0.111111 18336:0.333333 18669:0.25 18948:0.5 19035:0.25 19178:0.333333 19536:1 19575:0.0909091 20670:0.25 21429:0.2 21564:0.142857 22148:0.1 22187:0.666667 22215:0.125 22612:1 22638:0.25 22655:0.333333 22984:1 23136:0.5 23213:0.0666667 23258:0.0178571 23358:0.037037 23380:0.2 23435:0.0714286 24421:0.1 
1 81:0.0833333 93:0.08 377:0.1 486:0.166667 687:0.142857 988:0.1 993:0.166667 1599:0.0909091 1754:0.333333 1927:0.333333 2237:0.666667 2282:0.5 2345:0.04 2354:0.0196078 2356:0.0322581 2389:0.0625 2518:0.166667 2536:0.0333333 2565:0.125 2569:1 2571:0.0594059 2575:0.0361446 2576:0.131579 2732:0.044586 2741:0.08 2743:0.0384615 2859:0.0125786 2877:0.04 3034:1 3300:1 3388:0.5 3555:0.166667 3692:0.333333 3759:0.0454545 3841:0.142857 3846:0.0666667 3852:0.0588235 3979:0.142857 4039:1 4505:0.5 4774:1 5564:0.0625 6078:0.0384615 6466:0.333333 6958:1 7082:0.166667 7204:0.125 7235:0.0625 7284:0.2 7430:1 7447:0.333333 7449:0.4 7575:0.5 8131:0.0909091 8504:0.166667 8558:0.25 8810:0.0666667 8907:0.666667 8910:0.142857 8977:0.2 9009:0.0909091 9143:0.0952381 9174:0.0714286 9326:0.5 9382:0.0285714 9434:0.25 9451:1 10653:0.2 10984:0.333333 11205:1 11434:0.1 11450:0.5 11477:0.1 11920:0.0909091 11960:0.333333 12367:0.0341615 12497:1 12544:0.0909091 13179:1 13695:0.222222 14406:0.2 14567:0.0833333 14922:0.0508475 14925:0.1 15150:0.0689655 15550:0.142857 15635:0.5 16155:0.0285714 16224:1 16568:0.333333 16770:1 16833:1 17259:0.5 17381:1 18007:0.25 19604:0.2 19649:0.333333 19740:0.5 19748:0.166667 19923:0.1 20449:0.25 20527:1 20640:1 21058:1 21356:1 21524:0.333333 21913:0.142857 22032:0.428571 22050:0.166667 22318:0.0833333 22342:0.125 22369:0.3 22509:0.153846 22771:1 22952:0.0909091 23143:0.0666667 23213:0.0666667 23258:0.0535714 23368:0.047619 23380:0.2 23678:0.142857 23964:0.2 24063:1 24149:0.0588235 24216:1 
1 13:1 63:0.333333 76:0.272727 81:0.364583 93:0.5 135:0.375 152:0.166667 215:0.25 222:1 356:0.5 418:1 423:1 486:0.5 582:0.5 623:0.5 646:1 770:0.5 781:0.285714 782:0.5 824:0.5 834:0.0769231 857:1 867:0.5 875:0.5 924:1 988:0.3 1089:0.333333 1145:0.125 1163:1 1183:0.0769231 1198:1 1234:0.333333 1249:0.0714286 1332:0.1 1348:1 1563:0.333333 1704:0.5 1716:0.5 1769:0.333333 1841:1 1931:0.2 1935:0.166667 1980:0.125 2038:0.2 2132:0.142857 2234:1 2344:0.125 2345:0.04 2354:0.196078 2356:0.225806 2367:0.333333 2373:0.24 2389:0.0416667 2395:0.5 2431:0.166667 2438:0.25 2441:0.272727 2479:1 2495:0.477273 2528:0.333333 2536:0.116667 2554:0.333333 2565:0.0625 2571:0.316832 2575:0.228916 2576:0.289474 2607:1 2634:0.111111 2665:0.5 2692:0.137931 2715:0.0666667 2732:0.254777 2741:0.32 2743:0.0769231 2762:0.5 2766:0.5 2788:0.25 2815:0.333333 2837:0.208333 2859:0.169811 2878:0.117647 2915:0.0555556 2929:0.5 2931:1 3017:0.166667 3111:1 3180:1 3248:1 3255:0.0714286 3282:1 3309:0.333333 3334:1 3368:0.5 3428:0.25 3482:1 3555:1 3590:0.1 3628:0.170732 3642:0.2 3651:0.421053 3720:0.0909091 3741:1 3759:0.863636 3788:1 3846:0.2 3852:0.0196078 3924:0.04 3979:0.571429 4055:0.5 4200:0.166667 4228:0.0769231 4524:0.5 4538:0.142857 4598:1 4658:1 4737:0.0833333 4764:0.5 4795:0.5 4820:0.0666667 4836:0.5 4931:0.125 4953:1 5018:0.5 5028:1 5030:0.6 5055:1 5064:0.5 5079:0.714286 5154:0.5 5451:0.142857 5464:1 5551:0.25 5552:0.333333 5567:0.5 5617:0.5 5719:1 5783:1 5850:0.5 5921:0.285714 6005:0.375 6052:0.5 6078:0.153846 6096:1 6102:0.166667 6116:0.5 6168:0.166667 6226:1 6256:1 6299:0.142857 6301:1 6304:1 6309:1 6345:0.5 6352:0.5 6382:0.0833333 6485:1 6686:1 6713:0.5 6851:0.333333 6866:1 6876:0.166667 6931:0.5 6938:1 6969:1 7010:0.333333 7073:0.666667 7076:1 7112:0.166667 7144:0.205882 7211:1 7235:0.3125 7292:1 7307:1 7391:0.25 7449:0.2 7700:0.5 7736:1 7750:1 7752:1 7870:0.137931 7950:0.333333 8026:1 8054:0.285714 8084:0.333333 8104:0.269231 8108:0.125 8131:0.454545 8152:0.4 8328:1 8412:0.333333 8498:1 8509:0.25 8525:0.25 8583:0.2 8632:0.5 8708:1 8760:0.25 8810:0.2 8910:0.142857 8980:0.25 9009:0.0909091 9072:0.333333 9093:0.333333 9143:0.333333 9158:0.25 9213:0.5 9382:0.342857 9434:0.25 9436:0.333333 9446:0.333333 9576:0.25 9600:0.333333 9721:0.333333 9728:0.0833333 9785:0.333333 9839:0.142857 9998:1 10014:0.142857 10046:1 10161:0.25 10376:0.5 10388:1 10389:0.2 10399:1 10434:0.25 10446:0.5 10534:0.5 10607:0.5 10634:0.125 10658:1 10672:0.25 10890:0.1 11132:0.25 11308:0.5 11309:0.5 11371:0.125 11373:0.333333 11381:0.25 11427:0.5 11432:0.166667 11434:0.3 11476:0.125 11477:0.3 11478:0.133333 11557:0.5 11560:0.428571 11561:0.5 11578:0.2 11634:1 11648:1 11651:1 11657:0.5 11675:0.285714 11731:0.166667 11783:0.125 11960:0.333333 11966:1 12057:0.5 12242:0.05 12255:0.5 12264:0.25 12283:0.25 12356:0.166667 12367:0.245342 12402:1 12417:1 12422:1 12544:0.151515 12561:0.25 12633:0.5 12666:0.142857 12675:0.0434783 12686:0.5 12690:0.2 12710:0.272727 12769:1 12797:1 12812:0.142857 12927:1 12995:0.2 13006:0.25 13027:1 13110:0.142857 13146:0.25 13195:1 13255:0.5 13513:0.117647 13564:0.333333 13714:1 13740:0.2 13946:0.0833333 14009:0.166667 14077:1 14088:0.5 14100:0.6 14282:0.1 14405:0.44 14411:0.285714 14428:0.5 14462:1 14483:0.5 14567:0.0416667 14609:0.166667 14653:0.333333 14687:0.5 14735:0.105263 14748:0.6 14777:0.333333 14821:0.5 14824:1 14859:0.75 14865:0.25 14893:0.333333 14917:0.4 14922:0.20339 15038:0.387097 15046:0.571429 15048:0.714286 15129:1 15146:1 15150:0.0689655 15161:0.111111 15170:0.111111 15260:0.0666667 15289:0.166667 15297:0.5 15358:0.0909091 15424:0.142857 15431:0.5 15452:0.285714 15536:0.142857 15652:1 15802:1 15831:0.25 15901:0.25 15974:0.166667 16010:0.5 16109:1 16155:0.0857143 16279:0.333333 16404:0.333333 16461:0.5 16476:1 16568:0.333333 16571:1 16627:1 16732:0.5 16759:0.142857 16791:0.272727 16842:1 16844:1 16861:0.5 16908:0.5 16927:0.5 16941:0.333333 17020:0.2 17034:0.333333 17258:1 17274:0.285714 17341:1 17372:1 17440:0.166667 17441:0.5 17446:1 17472:1 17625:0.666667 17632:0.333333 17634:0.5 17694:0.25 17897:0.2 17906:0.25 17921:0.2 17942:0.125 18166:0.25 18191:0.5 18206:1 18483:1 18536:0.5 18618:0.5 18673:1 18738:1 18751:0.5 18827:0.5 18915:0.25 19059:0.333333 19080:0.5 19104:0.5 19117:1 19178:0.166667 19527:0.333333 19572:0.25 19575:0.0909091 19701:0.5 19736:0.25 19743:1 19748:1 19814:0.5 19877:0.333333 19916:0.181818 19923:0.3 20027:0.111111 20105:1 20122:0.333333 20149:1 20155:1 20237:0.166667 20266:0.4 20444:0.0909091 20523:1 20591:0.142857 20665:0.25 20871:0.5 20890:0.625 20991:1 21198:0.0625 21253:0.5 21305:1 21429:0.1 21506:0.166667 21529:1 21550:0.25 21554:0.5 21564:0.142857 21569:0.5 21596:0.230769 21608:0.047619 21666:1 21736:1 21800:0.142857 21807:0.111111 21815:0.25 21856:0.333333 21867:0.4 22089:0.333333 22148:0.1 22153:0.142857 22171:1 22187:0.333333 22211:0.5 22318:0.25 22342:0.25 22359:0.5 22395:1 22524:0.2 22534:0.4 22576:1 22720:0.111111 22742:0.4 22781:0.4 22814:0.4 22888:0.0909091 22952:0.0909091 23025:1 23104:0.666667 23112:0.428571 23143:0.0666667 23164:0.5 23213:0.2 23219:0.2 23258:0.401786 23271:0.181818 23283:0.142857 23298:1 23358:0.185185 23359:0.2 23368:0.0952381 23503:0.5 23764:1 23777:0.5 23782:0.125 23799:1 23848:0.5 23940:0.5 24013:0.5 24064:0.5 24087:1 24119:0.25 24148:0.117647 24149:0.705882 24168:0.333333 24234:1 24269:0.25 24274:1 24329:1 24372:1 24394:0.666667 24421:0.1 24440:1 
1 76:0.181818 81:0.541667 93:0.02 94:0.1 121:0.125 193:0.5 198:0.5 268:0.0625 368:0.25 384:1 408:1 454:0.5 486:0.333333 656:1 664:0.5 684:0.2 754:0.25 781:0.142857 923:0.75 988:0.2 993:0.166667 1044:0.25 1164:1 1249:0.0714286 1344:1 1390:1 1600:0.5 1636:1 1647:0.5 1860:1 1897:1 1931:0.4 2103:0.333333 2132:0.142857 2216:0.666667 2217:0.2 2231:0.2 2282:0.25 2345:0.32 2354:0.294118 2356:0.516129 2373:0.2 2389:0.1875 2427:1 2447:0.5 2495:0.295455 2518:0.166667 2528:0.166667 2536:0.133333 2567:0.2 2571:0.316832 2575:0.120482 2576:0.263158 2584:0.5 2619:1 2732:0.318471 2741:0.32 2766:1 2788:0.5 2837:0.0416667 2847:0.4 2859:0.138365 2878:0.0588235 2932:1 2966:1 3017:0.166667 3142:1 3255:0.0714286 3334:1 3388:0.5 3428:0.25 3590:0.2 3628:0.170732 3645:0.148148 3651:0.368421 3720:0.181818 3759:0.0909091 3836:0.0833333 3841:0.285714 3852:0.117647 3924:0.08 4082:0.5 4096:1 4233:1 4246:1 4298:0.25 4308:1 4324:0.25 4446:0.5 4474:0.0625 4476:0.333333 4496:1 4535:1 4538:0.0357143 4569:0.25 4659:1 4700:0.5 4737:0.166667 4764:0.375 4800:0.2 4806:1 4846:0.4 4931:0.375 5079:0.142857 5135:0.5 5209:0.0909091 5334:0.5 5382:0.5 5394:0.5 5396:0.5 5402:1 5523:0.5 5552:0.5 5564:0.0625 5708:1 5850:0.5 5921:0.142857 6045:0.5 6046:1 6078:0.0769231 6127:1 6140:0.333333 6217:0.333333 6225:0.4 6256:0.2 6343:1 6353:0.333333 6358:0.0769231 6382:0.0555556 6401:0.6 6457:0.5 6477:1 6661:0.5 6952:0.384615 6955:1 6960:0.2 6974:0.0769231 7073:0.333333 7078:0.25 7081:0.5 7158:1 7177:0.5 7179:1 7190:1 7198:0.5 7204:0.125 7235:0.1875 7247:0.666667 7252:1 7294:1 7391:0.25 7406:0.0909091 7449:0.2 7484:0.333333 7565:0.333333 7737:1 7778:0.5 7870:0.275862 8104:0.115385 8108:0.375 8152:0.4 8161:0.5 8205:0.333333 8241:0.166667 8271:0.166667 8412:0.333333 8475:1 8525:0.25 8528:1 8581:1 8583:0.2 8717:0.333333 8786:1 8791:0.25 8810:0.333333 8890:1 8910:0.142857 9009:0.0909091 9044:1 9093:0.111111 9143:0.238095 9156:0.5 9158:0.375 9366:0.125 9382:0.285714 9389:1 9436:0.166667 9452:0.5 9494:0.5 9549:0.5 9625:0.5 9756:0.2 9853:0.5 10058:0.2 10083:1 10161:0.25 10213:1 10446:0.25 10468:1 10495:1 10504:0.333333 10534:1 10597:1 10679:1 10849:0.166667 10896:1 10932:1 10956:0.25 10961:1 10984:0.166667 11074:1 11127:0.5 11371:0.1875 11373:0.666667 11423:1 11427:0.5 11432:0.5 11434:0.3 11476:0.125 11478:0.133333 11540:1 11634:0.0638298 11641:0.0588235 11673:0.333333 11675:0.142857 11680:0.5 11742:1 11885:0.333333 11935:1 11960:0.333333 12051:1 12242:0.0166667 12247:1 12367:0.276398 12393:0.333333 12542:0.2 12544:0.151515 12567:1 12568:0.5 12596:1 12710:0.181818 12840:0.5 12957:1 13120:0.5 13146:0.25 13205:0.142857 13324:0.25 13385:0.25 13426:0.666667 13477:1 13590:0.333333 13594:1 13672:0.333333 13695:0.111111 13777:0.5 13893:0.5 13983:1 14127:1 14173:1 14230:0.25 14282:0.1 14328:0.25 14384:0.125 14395:0.5 14405:0.26 14406:0.2 14411:0.142857 14425:1 14428:0.5 14567:0.333333 14645:0.363636 14653:0.666667 14725:0.333333 14735:0.210526 14748:0.4 14865:0.5 14922:0.271186 14925:0.1 14984:0.25 15038:0.0967742 15046:0.142857 15069:0.666667 15164:0.5 15167:1 15266:0.5 15289:0.166667 15361:0.333333 15481:0.5 15498:0.333333 15512:0.5 15516:0.25 15536:0.428571 15578:0.833333 15656:1 15780:1 16029:1 16071:1 16084:0.125 16109:0.333333 16249:0.1 16276:1 16295:1 16316:0.142857 16336:1 16422:1 16510:0.333333 16568:0.333333 16791:0.363636 16797:1 16805:0.0833333 16877:0.25 16926:0.5 17174:1 17397:0.0909091 17549:1 17563:0.75 17660:0.25 17694:0.25 17768:0.333333 17777:1 17781:0.333333 17849:0.217391 17869:0.166667 17870:0.333333 17908:1 17911:0.333333 18077:0.5 18111:1 18263:0.2 18384:0.111111 18479:1 18539:1 18726:0.75 18809:0.5 18857:1 18875:0.5 18884:1 18940:0.25 18959:0.333333 18966:1 19112:1 19114:1 19173:0.4 19178:0.5 19223:0.25 19224:1 19226:0.25 19257:1 19323:1 19449:0.333333 19460:0.333333 19572:0.25 19575:0.272727 19611:0.5 19701:1 19833:1 19858:0.25 19874:1 19916:0.0909091 19923:0.1 20009:0.125 20143:1 20152:1 20237:0.333333 20247:0.5 20327:1 20405:0.166667 20502:0.4 20645:0.333333 20656:1 20723:1 20871:0.5 20977:1 21007:0.5 21040:1 21067:0.333333 21389:1 21506:0.166667 21554:0.5 21567:1 21596:0.230769 21608:0.190476 21665:1 21704:0.111111 21752:0.25 21815:1 21914:0.333333 22051:0.5 22060:0.5 22145:0.166667 22148:0.05 22153:0.142857 22202:1 22268:0.5 22278:0.666667 22296:0.2 22318:0.0833333 22342:0.25 22369:0.1 22439:1 22447:0.166667 22457:0.2 22490:0.5 22510:0.25 22534:0.2 22613:0.2 22642:0.0666667 22742:0.2 22836:0.111111 22952:0.0909091 23104:0.333333 23112:0.285714 23143:0.133333 23213:0.133333 23231:1 23258:0.392857 23271:0.0909091 23283:0.142857 23358:0.185185 23359:0.8 23368:0.047619 23377:0.5 23594:0.5 23619:0.25 23665:0.333333 23721:1 23735:0.5 23831:0.5 23940:1 24058:1 24075:1 24119:0.25 24149:0.588235 24231:1 24355:0.5 24407:1 
1 81:0.177083 215:0.25 250:0.333333 303:0.0714286 596:0.5 751:0.333333 835:0.111111 892:1 988:0.2 1630:1 1747:0.222222 1973:0.24 2033:0.5 2103:0.333333 2250:0.5 2354:0.0196078 2356:0.0967742 2373:0.12 2389:0.0416667 2495:0.272727 2536:0.0833333 2568:0.333333 2571:0.207921 2575:0.0120482 2599:0.5 2654:0.0909091 2719:0.111111 2732:0.10828 2741:0.24 2788:0.25 2859:0.113208 2915:0.0555556 2919:0.5 2932:0.333333 2933:0.2 3141:0.5 3229:0.25 3286:1 3438:0.5 3509:1 3547:1 3622:1 3628:0.0243902 3645:0.333333 3651:0.105263 3656:0.230769 3841:0.285714 3852:0.0196078 3924:0.04 3973:0.5 3979:0.142857 4001:1 4196:0.333333 4214:0.0666667 4538:0.0714286 4789:0.666667 4886:0.238095 5079:0.285714 5094:1 5200:1 5208:1 5296:0.25 5383:1 5446:1 5831:1 5921:0.142857 6005:0.125 6045:0.5 6078:0.0769231 6140:1 6208:0.5 6219:1 6225:0.2 6239:0.4 6359:0.25 6382:0.166667 6383:0.5 6601:0.0625 6602:0.666667 6652:0.181818 6674:0.333333 6903:0.5 7030:1 7235:0.125 7242:1 7278:0.2 7406:0.0909091 7447:0.666667 7994:1 8001:0.333333 8047:0.0833333 8068:0.5 8090:0.333333 8104:0.0384615 8108:0.125 8412:0.333333 8500:0.666667 8504:0.166667 8791:0.25 8810:0.0666667 8910:0.142857 8937:0.5 9007:0.0555556 9237:1 9382:0.0571429 9434:0.25 9447:1 9470:1 9784:0.0833333 9839:0.142857 9874:0.0666667 9896:1 10058:0.2 10258:1 10510:0.333333 10626:0.666667 10717:1 10775:0.333333 10910:0.266667 10940:1 11244:0.5 11301:0.111111 11371:0.4375 11478:0.0666667 11578:0.2 11650:1 11675:0.285714 11680:0.25 11783:0.125 11842:0.2 11845:0.166667 12028:0.25 12068:0.5 12145:1 12157:0.333333 12236:0.333333 12239:1 12242:0.0666667 12277:0.1 12367:0.127329 12540:0.166667 12542:0.2 12544:0.121212 12595:0.2 12633:0.5 12680:0.5 12690:0.2 12710:0.363636 12806:0.5 12870:0.5 13035:0.2 13125:0.125 13146:0.25 13164:0.333333 13255:0.5 13385:0.25 13513:0.0588235 13564:0.333333 13885:0.5 14009:0.5 14241:0.333333 14244:1 14336:0.2 14356:0.166667 14384:0.125 14405:0.04 14411:0.142857 14471:0.25 14499:0.333333 14567:0.0416667 14581:0.666667 14702:0.5 14735:0.105263 14845:0.5 14917:0.2 14922:0.152542 14925:0.5 15150:0.0344828 15215:0.2 15452:0.142857 15517:0.111111 15590:0.333333 15887:0.5 15938:0.5 16071:0.5 16162:0.0769231 16404:0.111111 16489:0.25 16512:0.333333 16568:0.333333 16609:0.333333 16845:0.0909091 16858:1 16920:1 16922:1 16995:0.5 17434:1 17693:0.25 17828:0.571429 17869:0.166667 17975:0.166667 17982:1 18016:0.0588235 18149:0.111111 18183:1 18326:0.25 18619:1 18718:0.125 18792:0.166667 18940:0.125 18988:1 19178:0.166667 19286:0.25 19305:1 19387:0.5 19539:0.166667 19575:0.0909091 19635:0.1 19732:0.25 19923:0.1 19930:0.333333 19945:0.0769231 20122:0.166667 20226:0.2 20338:1 20503:1 20583:0.5 20612:0.5 20938:0.5 20966:0.5 21106:1 21350:0.125 21596:0.0769231 21723:0.0666667 21815:0.75 21914:0.666667 21915:0.5 21991:0.714286 22105:0.1 22148:0.15 22369:0.1 22391:0.333333 22554:0.5 22613:0.4 22642:0.0666667 22656:0.5 22679:0.142857 22888:0.181818 23043:0.1 23060:0.25 23104:1 23112:0.571429 23143:0.0666667 23213:0.133333 23258:0.169643 23358:0.148148 23423:0.142857 23513:0.25 23583:1 23799:0.5 23883:1 24062:0.181818 24149:0.117647 24267:0.333333 24277:1 24300:0.0625 24355:0.5 
1 81:0.0625 477:0.222222 2345:0.08 2373:0.08 2571:0.0792079 2732:0.0127389 2859:0.0125786 3590:0.2 3628:0.0487805 3645:0.0740741 3924:0.08 4258:1 4931:0.25 4995:0.666667 5128:1 5465:0.2 6382:0.111111 8152:0.133333 8776:1 8866:1 11180:0.666667 12242:0.0333333 12367:0.0124224 12710:0.0909091 14282:0.2 14405:0.04 15698:0.4 16313:0.222222 17374:1 17639:0.666667 18491:0.117647 22148:0.1 22642:0.133333 23063:1 24429:0.363636 
1 2009:1 2356:0.129032 2495:0.0454545 2571:0.019802 2575:0.0481928 2732:0.0382166 3645:0.0740741 3651:0.105263 3924:0.08 4086:0.461538 5796:1 7870:0.0689655 9143:0.0952381 11137:0.285714 11301:0.0740741 12242:0.0333333 12367:0.0124224 12589:0.2 12675:0.173913 13837:1 14735:0.105263 14865:0.5 17869:0.166667 18718:0.25 19104:0.333333 19858:0.5 21394:1 22391:0.666667 22557:1 23258:0.0178571 
1 11:1 21:0.5 32:0.5 66:0.666667 76:0.272727 81:0.541667 121:0.125 135:0.375 137:0.333333 213:0.2 290:0.25 303:0.0714286 362:1 378:1 384:1 491:1 498:1 582:0.25 640:0.5 698:0.2 701:1 716:0.333333 781:0.285714 785:0.5 834:0.230769 852:1 874:1 902:0.4 913:0.166667 962:0.2 988:0.3 993:0.166667 1015:0.5 1145:0.25 1186:0.5 1249:0.0714286 1252:0.25 1275:0.5 1332:0.1 1336:1 1537:1 1545:0.285714 1565:1 1607:0.5 1716:0.5 1725:1 1797:0.357143 1918:1 1921:0.5 1931:0.2 1935:0.166667 1980:0.125 2019:0.5 2038:0.4 2060:0.217391 2066:0.5 2081:0.2 2126:0.5 2127:1 2191:1 2203:0.2 2216:0.333333 2245:0.25 2271:0.2 2293:1 2345:0.16 2350:1 2354:0.313725 2356:0.193548 2373:0.52 2389:0.145833 2420:1 2441:0.0909091 2495:0.363636 2500:0.2 2528:0.333333 2536:0.866667 2553:0.5 2557:1 2565:0.3125 2571:0.287129 2575:0.0361446 2576:0.5 2626:1 2715:0.6 2732:0.382166 2736:1 2741:0.56 2743:0.115385 2744:0.0277778 2766:0.5 2837:0.125 2847:0.8 2859:0.440252 2878:0.176471 2954:0.25 2955:1 3017:0.333333 3077:1 3089:1 3326:1 3342:0.5 3345:0.666667 3353:0.0384615 3394:1 3398:1 3426:0.25 3428:0.25 3438:0.5 3477:1 3516:0.333333 3521:0.333333 3542:1 3555:0.166667 3590:0.1 3628:0.853659 3631:1 3639:1 3642:0.2 3656:0.230769 3742:1 3766:0.333333 3778:1 3841:0.142857 3846:0.333333 3852:0.745098 3924:0.36 3952:0.5 3979:0.285714 4002:0.4 4003:0.25 4049:1 4086:0.0769231 4170:0.25 4228:0.0769231 4309:0.0227273 4379:0.5 4391:1 4538:0.357143 4639:1 4698:1 4737:0.416667 4805:0.4 5175:0.2 5266:1 5345:0.166667 5348:0.5 5455:0.0909091 5553:0.5 5617:1 5682:0.333333 5879:0.333333 5986:1 6005:0.25 6012:0.25 6072:0.8125 6078:0.923077 6102:0.166667 6168:0.166667 6173:1 6177:1 6212:0.25 6225:0.2 6276:0.333333 6382:0.0833333 6435:0.5 6438:1 6467:1 6505:0.2 6563:1 6605:0.333333 6612:0.5 6661:1 6673:0.0526316 6685:0.142857 6764:1 6814:0.166667 6940:0.5 6971:0.5 6983:1 7033:0.5 7124:0.1 7211:0.166667 7222:0.5 7235:0.25 7258:0.25 7284:0.2 7317:0.333333 7321:0.166667 7350:0.5 7417:0.333333 7436:1 7447:0.666667 7643:1 7651:0.5 7805:0.5 7870:0.241379 7947:0.25 7963:0.5 7995:0.5 8001:0.333333 8068:0.5 8103:0.0769231 8104:0.0769231 8109:0.75 8131:0.545455 8152:0.466667 8269:0.5 8408:0.166667 8412:0.333333 8442:1 8504:0.166667 8554:1 8577:0.5 8583:1 8614:0.25 8667:0.5 8707:0.5 8741:1 8754:0.333333 8810:0.266667 8833:1 8854:0.75 8903:0.2 8967:0.166667 8980:0.25 8989:0.25 9009:0.454545 9044:1 9051:0.5 9052:1 9064:1 9072:0.166667 9093:0.111111 9120:0.25 9249:0.333333 9278:0.166667 9382:0.6 9418:0.5 9463:0.25 9550:0.5 9578:1 9622:0.333333 9711:0.2 9721:0.333333 9756:0.2 9785:0.333333 9835:1 9867:0.25 9874:0.0666667 9910:0.25 9983:0.5 10058:0.2 10085:0.5 10240:1 10396:0.5 10402:1 10413:0.4 10446:0.25 10511:1 10513:0.5 10612:1 10614:0.4 10712:1 10718:0.5 10742:0.5 10776:0.333333 10794:1 10877:1 10937:1 10940:1 10956:0.5 11132:0.375 11137:0.142857 11155:0.333333 11274:0.5 11284:0.285714 11371:0.125 11419:0.25 11425:0.5 11434:0.2 11468:0.125 11470:0.125 11475:1 11478:0.133333 11641:0.176471 11657:0.5 11675:0.285714 11684:0.5 11692:1 11762:0.333333 11857:0.333333 11964:0.5 12029:0.5 12032:0.666667 12088:0.25 12122:1 12171:0.5 12242:0.0666667 12282:0.25 12283:0.125 12342:0.111111 12344:0.166667 12367:0.493789 12430:1 12433:1 12455:0.333333 12519:0.333333 12540:0.166667 12544:0.272727 12595:0.2 12710:0.0909091 12738:0.142857 12927:1 12954:0.25 12964:0.2 13110:0.142857 13111:0.2 13125:0.25 13151:1 13188:0.2 13241:0.333333 13266:0.5 13290:0.5 13318:0.5 13426:0.333333 13501:1 13514:1 13676:1 13735:1 13758:1 13824:0.666667 13872:0.4 13886:0.2 13926:1 13931:0.181818 13949:1 13967:0.5 14009:0.166667 14100:0.8 14103:0.285714 14282:0.1 14356:0.5 14360:1 14405:1 14411:0.142857 14416:1 14428:0.5 14473:1 14481:0.333333 14496:0.2 14567:0.208333 14573:0.125 14607:0.333333 14609:0.5 14702:0.5 14723:0.5 14735:0.105263 14812:0.5 14859:0.75 14893:0.166667 14922:0.644068 14925:0.1 14984:0.25 15038:0.0645161 15042:1 15048:0.428571 15050:0.111111 15078:1 15080:1 15102:0.333333 15226:0.5 15231:0.2 15235:0.5 15276:0.142857 15417:1 15424:0.285714 15452:0.142857 15517:0.111111 15590:0.333333 15698:0.2 15728:0.166667 15780:1 15806:0.25 15950:0.333333 15960:0.5 15970:1 15974:0.333333 16074:0.5 16156:1 16230:0.25 16280:0.5 16387:0.333333 16404:0.666667 16461:0.5 16506:1 16514:1 16550:0.5 16552:1 16568:0.333333 16582:0.25 16610:0.5 16627:1 16704:0.5 16717:0.2 16737:1 16764:1 16791:0.0909091 16909:0.5 16912:0.5 17017:0.5 17018:0.125 17063:0.166667 17105:1 17231:0.5 17285:0.333333 17288:0.5 17326:1 17363:0.25 17366:0.333333 17509:1 17634:1 17673:0.0714286 17693:0.166667 17826:1 17838:0.25 17840:1 17849:0.0434783 17869:0.833333 17877:0.333333 17934:0.222222 18009:0.2 18122:0.2 18175:1 18215:0.666667 18220:0.5 18241:1 18264:1 18313:0.111111 18384:0.444444 18449:1 18669:0.25 18691:1 18759:1 18792:0.166667 18863:0.5 18959:0.166667 18969:1 18987:0.5 19046:0.5 19179:0.5 19180:0.2 19182:1 19264:1 19335:1 19449:0.333333 19575:0.181818 19579:1 19649:0.333333 19668:0.2 19701:0.25 19712:0.333333 19748:0.166667 19766:1 19891:1 19910:0.333333 19913:1 19929:0.25 19930:1 20029:0.5 20122:0.833333 20166:1 20262:0.5 20266:0.2 20313:1 20424:1 20437:1 20502:0.2 20504:0.25 20530:0.25 20570:0.25 20591:0.0714286 20645:0.333333 20711:1 20859:0.5 20930:0.25 20952:1 21007:1 21015:0.5 21067:0.333333 21086:0.2 21375:0.166667 21494:0.5 21596:0.538462 21707:0.0526316 21748:0.75 21807:1 21905:0.333333 22086:0.5 22144:1 22148:0.05 22318:0.0833333 22341:0.2 22345:0.833333 22373:0.5 22446:0.333333 22449:0.5 22526:1 22556:0.25 22589:0.2 22711:1 22742:0.4 22855:0.333333 22994:1 23025:1 23143:0.266667 23155:0.25 23187:1 23213:0.2 23258:0.321429 23271:0.272727 23283:0.285714 23299:0.5 23337:0.5 23377:0.5 23391:0.25 23445:0.5 23622:0.333333 23666:0.125 23674:1 23697:0.25 23728:0.142857 23753:0.5 23834:0.5 23871:0.166667 23880:0.333333 24064:0.5 24094:0.5 24148:0.0588235 24149:0.647059 24161:0.2 24399:1 24452:1 
1 81:0.104167 290:0.5 913:0.222222 1044:0.25 1587:0.111111 1692:0.5 1945:0.5 1980:0.375 2138:0.75 2345:0.12 2354:0.0392157 2356:0.0322581 2373:0.16 2389:0.166667 2495:0.0681818 2565:0.0625 2571:0.0693069 2575:0.0120482 2576:0.0263158 2732:0.0955414 2741:0.28 2808:0.5 2859:0.0691824 2878:0.235294 2993:0.111111 3221:0.5 3350:1 3398:0.5 3628:0.0487805 3651:0.315789 3720:0.0909091 3924:0.04 3944:1 3979:0.142857 4086:0.153846 4167:1 4248:0.5 4538:0.142857 4737:0.0833333 4800:0.2 4821:1 5132:1 5879:0.333333 5921:0.142857 6078:0.0769231 6502:0.5 7039:0.333333 7124:0.2 7125:0.333333 7175:0.166667 7211:0.166667 7284:0.2 7367:0.2 7484:0.333333 7571:0.333333 7574:1 7870:0.0344828 8104:0.115385 8131:0.272727 8308:0.181818 8483:0.75 8734:0.1 8793:0.333333 9109:0.25 9143:0.047619 9156:0.5 9278:0.333333 9382:0.0571429 9441:0.2 9550:0.25 10051:1 10058:0.2 10413:0.2 10477:0.8 11137:0.142857 11301:0.37037 11427:0.5 11470:0.25 11477:0.2 11540:0.5 11578:0.6 11675:0.285714 11946:0.285714 11962:0.5 11999:0.666667 12242:0.0833333 12350:0.5 12367:0.114907 12544:0.181818 12631:0.0833333 12675:0.0434783 12710:0.0909091 12755:0.25 12812:0.0714286 12858:0.5 13110:0.142857 13168:1 13310:0.0555556 13316:1 13355:1 13386:0.5 13432:0.5 13543:1 13824:0.666667 13886:0.4 13950:0.333333 14009:0.333333 14082:0.125 14100:0.2 14323:0.555556 14336:0.1 14384:0.125 14405:0.04 14436:0.166667 14506:0.5 14567:0.0416667 14650:0.142857 14673:1 14735:0.0526316 14818:1 14836:1 14922:0.135593 15038:0.0967742 15108:1 15150:0.103448 15372:0.166667 15401:0.133333 15486:0.25 15498:0.333333 15620:0.136364 15726:0.0273973 15853:0.166667 15960:0.166667 16114:0.5 16387:0.333333 16404:0.111111 16717:0.2 17018:0.166667 17329:0.333333 17358:1 17581:0.25 17693:0.0833333 17780:0.333333 17781:0.333333 18009:0.2 18195:0.333333 18211:0.5 18263:0.2 18269:0.333333 18313:0.222222 18321:0.2 18777:0.5 19104:0.333333 19145:1 19180:0.2 19223:0.25 19369:1 19616:0.142857 19879:0.25 19929:0.25 20310:0.5 20794:0.5 20804:1 20849:0.5 21350:0.25 21500:0.692308 21596:0.0769231 21608:0.142857 21650:1 21704:0.111111 21752:1 21764:0.0526316 21807:0.222222 21943:1 22105:0.4 22318:0.0833333 22327:0.5 22460:0.25 22836:0.222222 22846:1 22936:0.5 23004:0.571429 23143:0.133333 23162:0.5 23258:0.107143 23358:0.259259 23403:0.5 23713:1 23806:0.5 24149:0.0588235 
1 81:0.15625 215:0.25 368:0.125 477:0.111111 640:0.25 832:0.1 913:0.0555556 1249:0.142857 1261:0.5 1275:0.25 1429:0.25 1563:0.166667 1674:0.333333 2084:0.5 2205:0.5 2215:1 2217:0.2 2345:0.08 2354:0.117647 2356:0.129032 2373:0.04 2389:0.0625 2495:0.0681818 2497:1 2536:0.0333333 2553:0.5 2555:0.166667 2571:0.178218 2575:0.0120482 2664:1 2715:0.0666667 2732:0.0828025 2741:0.2 2788:0.25 2859:0.113208 2877:0.08 2881:0.125 2907:0.5 2929:0.25 2956:0.5 3069:0.333333 3555:0.166667 3628:0.0243902 3651:0.0526316 3656:0.384615 3682:1 3924:0.08 4538:0.0714286 4650:0.166667 4737:0.0416667 4805:0.2 4873:1 4931:0.375 5079:0.142857 5270:0.5 5657:0.5 5833:1 5921:0.142857 5972:0.0625 6078:0.0769231 6122:1 6329:0.5 6382:0.0555556 6403:1 6448:0.2 6509:0.333333 6652:0.0909091 6737:0.5 6931:1 6990:0.25 7124:0.1 7204:0.125 7235:0.0625 7950:0.333333 8104:0.153846 8152:0.133333 8325:0.6 8490:0.416667 8517:0.5 8554:0.25 8691:1 8777:1 8791:0.25 8835:1 8934:0.333333 8957:0.5 9072:0.166667 9235:0.166667 9382:0.0285714 9567:0.333333 9652:0.333333 9785:0.333333 9910:0.75 9945:0.166667 10058:0.2 10182:0.25 10413:0.2 10478:0.75 10540:0.333333 10763:0.333333 10797:1 11132:0.125 11301:0.111111 11343:1 11371:0.0625 11432:0.333333 11434:0.1 11470:0.125 11477:0.2 11480:0.4 11731:0.5 11935:1 11946:0.142857 12027:0.5 12175:1 12242:0.0833333 12255:0.5 12277:0.2 12367:0.0962733 12370:1 12544:0.181818 12667:0.333333 12698:0.333333 12710:0.181818 12823:0.25 12828:0.333333 12949:0.333333 13035:0.4 13140:0.5 13142:0.5 13205:0.0714286 13412:1 13740:1 13872:0.2 13946:0.0833333 14044:1 14267:0.222222 14356:0.166667 14405:0.02 14406:0.4 14590:0.25 14735:0.0526316 14844:1 14845:1 14885:1 14922:0.186441 15038:0.0645161 15046:0.142857 15150:0.0689655 15260:0.0666667 15358:0.181818 15660:0.333333 15804:0.5 15990:0.5 16084:0.125 16090:0.5 16211:0.25 16366:0.25 16404:0.111111 16496:1 16512:0.333333 16622:0.2 16704:0.5 16717:0.2 16762:0.153846 16764:0.111111 16855:0.166667 16996:1 17148:0.5 17193:1 17259:0.25 17289:0.333333 17404:0.142857 17424:0.5 17494:0.166667 17564:0.5 17673:0.0714286 17906:1 18013:0.2 18220:0.5 18228:0.5 18288:0.166667 18599:1 18633:1 18773:1 18792:0.333333 18881:1 19023:0.25 19104:0.333333 19267:1 19358:0.25 19668:0.2 19879:1 19923:0.1 20454:1 20691:1 20822:1 20872:1 21054:0.333333 21124:0.166667 21413:1 21429:0.1 21506:0.166667 21584:1 21740:0.333333 21772:0.333333 21815:0.75 21905:0.666667 22091:0.818182 22148:0.1 22314:1 22318:0.416667 22342:0.125 22460:0.25 22534:0.2 22704:0.5 22919:0.0666667 23258:0.205357 23271:0.0909091 23343:0.5 23358:0.222222 23363:0.5 23498:1 23510:1 23619:0.25 23707:0.333333 23722:0.5 23738:1 24069:0.5 24149:0.294118 24358:1 24375:0.5 24402:1 24421:0.1 24437:1 24457:0.5 
1 76:0.0909091 81:0.15625 150:0.5 215:0.25 268:0.0625 414:0.5 477:0.111111 698:0.1 874:0.5 988:0.1 1218:0.166667 1308:1 1980:0.125 2103:0.333333 2345:0.08 2354:0.0392157 2356:0.0967742 2373:0.12 2389:0.0625 2441:0.0909091 2495:0.0909091 2518:0.333333 2536:0.0166667 2546:1 2555:0.166667 2565:0.125 2571:0.0792079 2575:0.0120482 2576:0.105263 2715:0.0666667 2732:0.0573248 2741:0.2 2743:0.0384615 2837:0.0416667 2847:0.4 2859:0.125786 2885:0.666667 3221:0.25 3555:0.166667 3624:0.5 3628:0.0731707 3651:0.210526 3656:0.0769231 3766:0.333333 3846:0.0666667 3924:0.04 4131:0.5 4343:1 4538:0.0357143 4737:0.0416667 4749:0.05 5145:1 5419:0.5 5766:1 5777:1 5831:1 5864:0.333333 5871:0.5 6030:0.4 6102:0.166667 6104:1 6175:1 6358:0.0769231 6382:0.0277778 6466:0.333333 6467:0.2 6652:0.272727 6792:0.2 6803:0.125 7095:0.25 7235:0.125 7634:0.666667 7908:1 7916:0.333333 8104:0.0769231 8108:0.125 8131:0.0909091 8236:0.2 8391:1 8412:0.333333 8425:1 8980:0.25 9143:0.047619 9145:0.5 9382:0.0285714 9550:0.5 9897:0.333333 9951:0.5 10484:0.5 10538:0.1 10549:0.333333 10780:1 10949:0.166667 11055:1 11132:0.25 11269:0.5 11299:0.5 11301:0.037037 11371:0.125 11465:0.5 11477:0.2 11553:0.230769 11574:0.5 11641:0.0588235 11673:0.333333 11675:0.142857 11891:1 11953:0.166667 12223:0.333333 12242:0.0333333 12344:0.166667 12363:0.0714286 12367:0.0900621 12544:0.181818 12631:0.0833333 12710:0.181818 12731:1 12957:0.333333 13040:0.5 13289:1 13310:0.0555556 13594:0.25 13872:0.2 13918:0.0714286 13985:1 14025:0.5 14035:0.2 14073:1 14100:0.2 14239:1 14310:0.5 14405:0.04 14406:0.2 14777:0.333333 14865:0.25 14922:0.186441 14925:0.2 14984:0.25 15038:0.258065 15070:0.142857 15215:0.2 15260:0.0666667 15263:1 15354:0.5 15358:0.272727 15578:0.166667 16024:1 16124:0.5 16275:0.5 16404:0.111111 16512:0.333333 16685:0.5 16725:0.0909091 16762:0.153846 16791:0.0909091 16836:0.5 16845:0.0909091 17031:0.166667 17086:1 17263:0.75 17656:0.666667 17781:0.333333 18786:0.2 19113:0.047619 19248:0.25 19378:1 19575:0.363636 19668:0.2 19698:0.5 20122:0.166667 20448:0.2 20451:0.333333 20668:1 20684:0.333333 20731:0.5 20789:0.615385 20842:1 20930:0.25 21404:0.2 21569:0.5 21748:0.25 21914:0.333333 21933:1 22071:0.5 22148:0.1 22369:0.1 22460:0.25 22475:0.4 22626:1 22642:0.0666667 22826:0.5 23104:0.666667 23112:0.142857 23116:0.5 23143:0.0666667 23213:0.133333 23258:0.0892857 23331:1 23359:0.2 23403:0.5 23732:0.333333 24149:0.176471 24463:1 
1 81:0.0416667 93:0.02 259:0.333333 465:0.333333 490:0.333333 516:1 528:0.2 834:0.461538 913:0.5 1044:0.25 1092:0.142857 1249:0.0714286 1365:0.333333 1545:0.428571 2063:0.5 2301:1 2345:0.08 2354:0.137255 2356:0.0967742 2373:0.08 2389:0.0833333 2402:0.25 2431:0.0833333 2441:0.0909091 2495:0.181818 2517:1 2518:0.166667 2536:0.183333 2565:0.0625 2568:0.333333 2571:0.0990099 2575:0.0843373 2576:0.105263 2619:1 2692:0.0344828 2702:0.5 2715:0.0666667 2732:0.0828025 2741:0.04 2769:0.25 2859:0.144654 2915:0.0555556 2956:0.125 3017:0.5 3353:0.230769 3555:0.166667 3628:0.0487805 3651:0.0526316 3656:0.230769 3674:0.25 3759:0.0454545 3841:0.142857 3846:0.133333 3898:0.5 3914:0.333333 3924:0.08 3932:0.5 3979:0.142857 4078:0.25 4168:0.666667 4538:0.0714286 4678:0.5 4737:0.333333 5296:0.25 5451:0.142857 6005:0.125 6076:0.333333 6078:0.115385 6225:0.2 6317:0.5 6376:0.333333 6382:0.0833333 6383:1 6449:0.25 6512:0.5 6605:1 6685:0.142857 6799:0.5 7211:0.166667 7284:0.2 7366:0.166667 7406:0.0909091 7480:0.25 7606:1 8103:0.0769231 8104:0.346154 8236:0.2 8308:0.181818 8423:1 8525:0.125 8527:0.357143 8554:0.25 8558:0.25 8810:0.0666667 8862:1 9007:0.0555556 9143:0.047619 9174:0.0714286 9266:0.2 9311:0.444444 9418:0.25 9434:0.25 9600:0.333333 9697:1 9845:0.166667 9874:0.0666667 9891:0.5 9942:0.5 10139:0.25 10161:0.25 10217:0.5 10822:0.333333 11009:0.333333 11167:0.0909091 11226:0.5 11301:0.148148 11359:0.142857 11371:0.0625 11478:0.133333 11560:0.142857 11634:0.0212766 11675:0.142857 11830:0.5 11892:1 11931:1 11946:0.142857 11963:0.5 12092:0.5 12242:0.133333 12367:0.170807 12544:0.030303 12609:0.25 12631:0.166667 12817:1 12858:1 12927:1 13146:0.25 13412:1 13492:0.166667 13672:0.111111 13927:0.5 14100:0.2 14187:0.4 14308:0.5 14323:0.666667 14405:0.1 14481:0.666667 14735:0.0526316 14922:0.288136 15038:0.0322581 15161:0.111111 15170:0.777778 15238:0.5 15358:0.0909091 15401:0.0666667 15452:0.142857 15504:1 15589:0.5 15698:0.2 15832:0.166667 15894:1 15974:0.166667 16052:0.5 16155:0.0285714 16194:0.230769 16280:0.25 16375:0.5 16660:0.5 16845:0.0909091 17018:1 17259:0.25 17274:0.142857 17701:0.0769231 17803:0.5 18289:0.333333 18313:0.111111 18347:0.333333 18792:0.166667 19092:1 19104:0.333333 19668:0.2 19748:0.166667 19778:0.0714286 19819:0.111111 19923:0.1 20250:1 20291:0.333333 20517:1 20530:0.5 20592:1 20626:0.5 20831:0.25 20848:1 20921:1 21079:1 21391:0.5 21596:0.0769231 21608:0.0952381 21623:0.2 21723:0.133333 21758:0.0555556 21764:0.105263 21772:1 21807:0.111111 21810:0.5 22153:0.571429 22163:0.333333 22318:0.0833333 22590:0.666667 22613:0.2 22742:0.2 22888:0.0909091 22920:0.5 23060:0.75 23143:0.0666667 23213:0.133333 23258:0.0892857 23271:0.0909091 23283:0.142857 23358:0.037037 23391:0.5 23513:0.25 23622:0.666667 23678:0.142857 23831:0.5 23879:1 23964:0.2 24118:0.333333 24149:0.117647 24364:0.5 
1 76:0.0909091 81:0.09375 135:0.125 137:0.333333 250:0.333333 384:1 628:1 648:0.5 698:0.2 913:0.0555556 941:0.1 971:0.5 988:0.1 1545:0.142857 1918:1 1944:0.5 1980:0.125 2046:0.4 2107:0.285714 2297:1 2345:0.12 2354:0.0392157 2356:0.0322581 2373:0.08 2389:0.0625 2536:0.0166667 2565:0.0625 2571:0.0594059 2575:0.0722892 2576:0.0789474 2602:0.166667 2715:0.0666667 2732:0.0700637 2743:0.153846 2859:0.0566038 2993:0.111111 3277:0.111111 3323:0.5 3599:0.2 3604:0.5 3628:0.0243902 3651:0.105263 3852:0.117647 4086:0.307692 4251:1 4309:0.0454545 4737:0.0416667 4931:0.25 4940:0.5 5451:0.142857 5564:0.3125 5581:0.5 6078:0.0384615 6281:0.5 6358:0.0769231 7022:0.666667 7282:0.5 7571:0.333333 7574:1 8104:0.0384615 8308:0.181818 8741:0.5 9072:0.166667 9278:0.166667 9382:0.0571429 10035:1 10188:0.5 11301:0.037037 11371:0.0625 11703:0.5 11726:0.333333 11946:0.142857 12032:1 12242:0.0833333 12264:0.25 12367:0.0590062 12542:0.2 12595:0.2 12723:1 12748:0.333333 12764:0.5 12812:0.142857 13271:0.333333 13659:1 13719:1 13785:1 13886:0.2 13918:0.142857 13946:0.166667 14035:0.4 14082:0.375 14336:0.2 14405:0.06 14411:0.142857 14567:0.0416667 14842:0.333333 14845:0.5 14917:0.2 14922:0.135593 15038:0.0322581 15046:0.142857 15150:0.0344828 15193:0.5 15225:1 15362:0.5 15486:0.0833333 15513:1 15726:0.0273973 15832:0.333333 16137:1 16249:0.1 16404:0.222222 16467:0.5 16685:0.5 16845:0.0909091 17018:0.0416667 17990:0.4 18122:0.2 18683:1 18860:1 19180:0.4 19358:0.25 19732:0.25 19871:1 19879:0.25 20878:1 21168:0.25 21500:0.0769231 21506:0.166667 21624:1 21807:0.111111 22318:0.166667 22597:0.176471 22882:1 22888:0.0909091 23172:1 23213:0.133333 23258:0.00892857 23358:0.037037 23674:0.333333 23842:1 24106:0.5 24149:0.0588235 24333:0.2 24461:0.5 
1 66:0.333333 76:0.181818 81:0.21875 247:1 377:0.1 414:0.125 513:0.5 557:1 615:0.5 644:0.5 686:0.5 812:1 818:0.333333 913:0.0555556 933:1 973:1 975:0.5 988:0.1 993:0.166667 1115:1 1249:0.0714286 1367:0.25 1563:0.333333 1587:0.111111 1702:0.5 1749:1 1869:1 1904:0.5 1921:0.5 1980:0.25 1988:1 2077:0.5 2103:0.666667 2145:0.5 2345:0.24 2354:0.0588235 2356:0.0967742 2373:0.28 2389:0.229167 2395:0.5 2441:0.181818 2468:1 2495:0.136364 2513:0.166667 2528:0.166667 2536:0.05 2565:0.0625 2571:0.257426 2575:0.060241 2576:0.0526316 2695:1 2715:0.133333 2732:0.210191 2741:0.6 2743:0.115385 2859:0.144654 2989:1 3026:0.25 3056:1 3069:0.333333 3101:0.5 3122:1 3216:1 3353:0.0384615 3398:0.5 3404:1 3438:0.5 3472:0.666667 3497:0.0714286 3628:0.0243902 3651:0.263158 3657:0.5 3702:1 3763:1 3885:1 3913:1 3924:0.24 3979:0.142857 4012:1 4078:0.25 4152:1 4167:0.2 4207:0.75 4273:0.5 4436:1 4538:0.321429 4737:0.25 4784:0.5 4813:0.333333 4834:1 4846:0.2 4858:1 5079:0.428571 5242:0.5 5296:0.25 5320:1 5419:0.25 5448:0.2 5564:0.125 5598:1 5691:0.666667 5960:0.5 6005:0.25 6030:0.2 6078:0.0769231 6100:0.333333 6102:0.166667 6198:1 6225:0.2 6280:0.5 6376:0.333333 6382:0.0555556 6401:0.2 6482:1 6509:0.333333 6652:0.0909091 6693:1 6803:0.125 6960:0.2 7038:0.5 7069:1 7124:0.1 7175:0.166667 7235:0.0625 7239:0.5 7244:0.5 7284:0.2 7321:0.166667 7388:0.5 7479:0.0454545 7534:1 7537:0.666667 7548:0.333333 7563:1 7686:0.5 7717:0.5 7778:0.5 7893:0.5 8046:1 8097:0.5 8104:0.0384615 8108:0.125 8131:0.0909091 8152:0.133333 8227:1 8325:0.2 8614:0.125 8810:0.2 8826:0.5 9009:0.181818 9028:0.5 9107:0.181818 9164:1 9382:0.114286 9436:0.333333 9538:1 9808:1 9820:0.333333 9822:0.0322581 10053:0.125 10300:1 10409:0.5 10446:0.25 10654:1 10729:1 10821:1 10888:1 11093:1 11132:0.375 11146:1 11167:0.181818 11337:0.333333 11371:0.125 11478:0.266667 11578:0.2 11675:0.142857 11680:0.25 11726:0.666667 11731:0.166667 11894:1 11964:0.5 12193:0.5 12242:0.0666667 12367:0.208075 12381:0.5 12403:0.333333 12544:0.212121 12568:0.5 12595:0.2 12610:0.2 12633:1 12653:1 12675:0.0434783 12949:0.333333 12958:0.153846 12963:0.153846 12964:0.2 12971:1 13006:1 13161:1 13188:0.2 13255:0.5 13290:1 13341:0.111111 13342:0.111111 13451:0.25 13549:0.166667 13715:0.333333 13858:1 14010:0.5 14269:1 14403:0.166667 14405:0.12 14628:1 14656:0.5 14673:0.333333 14735:0.210526 14865:0.25 14922:0.237288 14925:0.3 15038:0.16129 15046:0.142857 15119:1 15215:0.2 15297:0.5 15382:0.5 15432:1 15456:1 15517:0.111111 15590:0.666667 15595:1 15698:0.2 15719:0.166667 15868:1 15938:0.25 15958:1 15960:0.166667 16006:1 16150:1 16161:0.25 16255:1 16404:0.444444 16549:0.75 16571:1 16845:0.0909091 16859:0.5 17018:0.0416667 17031:0.166667 17057:1 17322:0.5 17326:0.25 17365:1 17551:0.5 17591:1 17869:0.166667 17911:0.666667 18068:1 18106:1 18215:0.333333 18309:1 18551:0.333333 18732:1 18768:0.5 18816:0.333333 18901:0.2 18940:0.125 19061:1 19173:0.2 19178:0.166667 19286:0.25 19329:0.5 19575:0.272727 19616:0.142857 19776:0.2 19923:0.2 19936:1 19962:1 20122:0.166667 20266:0.4 20342:1 20423:1 20468:0.2 20482:0.4 20578:1 20591:0.142857 20714:0.5 20794:1 20901:0.5 20992:0.25 21014:0.5 21086:0.6 21163:0.5 21183:1 21253:0.5 21264:0.2 21446:0.5 21477:1 21560:0.5 21569:0.5 21596:0.0769231 21727:0.230769 21764:0.0526316 21771:0.333333 21858:1 21869:1 21987:0.5 22105:0.1 22148:0.05 22318:0.166667 22360:0.333333 22497:1 22521:0.2 22642:0.133333 22695:0.5 22814:0.4 23152:0.0833333 23173:0.8 23213:0.133333 23258:0.0982143 23317:0.5 23358:0.185185 23373:1 23380:0.2 23390:1 23513:0.25 23619:0.25 23633:0.333333 23665:0.333333 23728:0.285714 23770:0.333333 23964:0.4 23967:0.125 24041:1 24149:0.117647 24188:0.333333 24267:0.333333 24421:0.5 
1 76:0.272727 81:0.21875 93:0.06 135:0.125 221:1 226:0.25 250:0.333333 460:0.333333 465:0.333333 477:0.111111 491:1 495:0.5 691:0.333333 721:1 827:1 941:0.6 988:0.1 993:0.666667 1044:0.25 1104:0.0909091 1145:0.75 1365:0.333333 1453:1 1511:0.333333 1536:0.5 1587:0.111111 1682:1 1814:0.125 1990:1 2014:0.333333 2104:1 2189:0.0714286 2217:0.2 2333:0.333333 2345:0.2 2354:0.0980392 2356:0.16129 2373:0.48 2389:0.125 2411:0.333333 2438:0.5 2441:0.0909091 2495:0.181818 2536:0.233333 2565:0.0625 2571:0.118812 2575:0.216867 2576:0.315789 2665:0.5 2692:0.0344828 2732:0.191083 2741:0.2 2743:0.230769 2837:0.0833333 2859:0.176101 2877:0.08 2878:0.0588235 2881:0.125 2915:0.222222 2956:0.125 3075:1 3098:1 3193:0.5 3320:0.333333 3368:0.5 3558:1 3628:0.0243902 3651:0.105263 3770:0.6 3841:0.142857 3852:0.0784314 3924:0.04 3954:1 4154:0.2 4229:1 4309:0.0227273 4507:0.5 4538:0.142857 4661:0.142857 4683:1 4690:0.5 4800:0.2 4843:1 4945:0.5 5079:0.142857 5266:1 5329:0.2 5398:0.0344828 5400:1 5451:0.142857 5455:0.181818 5463:0.5 5624:1 5725:1 5781:1 6005:0.25 6078:0.423077 6212:0.25 6276:0.333333 6358:0.0769231 6362:1 6382:0.0555556 6505:0.2 6723:0.5 6756:0.5 6918:0.666667 6960:0.1 7112:0.166667 7124:0.2 7235:0.0625 7252:1 7321:0.166667 7367:0.2 7426:1 7741:1 8104:0.307692 8108:0.25 8241:0.333333 8296:0.25 8515:0.333333 8525:0.25 8632:0.5 8810:0.266667 8835:0.5 8935:1 8951:0.5 8990:0.5 9007:0.0555556 9009:0.0909091 9036:1 9072:0.333333 9120:0.25 9150:0.5 9155:0.5 9190:1 9244:1 9266:0.2 9312:0.5 9382:0.0571429 9512:0.5 9561:0.333333 9610:0.5 9638:1 9756:0.4 9897:0.333333 10058:0.2 10440:1 10786:1 10897:1 10910:0.333333 11072:0.25 11074:0.117647 11130:1 11304:1 11371:0.125 11477:0.2 11478:0.0666667 11537:0.5 11641:0.0588235 11675:0.428571 11751:1 11783:0.125 11943:0.5 12029:0.25 12032:0.333333 12220:1 12264:1 12329:0.5 12367:0.127329 12496:0.5 12544:0.0909091 12631:0.0833333 12675:0.0434783 12710:0.0909091 12778:0.666667 12823:0.25 12902:1 12927:0.5 13006:0.25 13229:1 13310:0.0555556 13440:1 13542:1 13660:0.25 13694:0.4 13946:0.0833333 13961:0.0666667 14035:0.2 14043:0.25 14114:1 14356:0.166667 14405:0.04 14411:0.142857 14516:1 14527:1 14567:0.125 14601:1 14735:0.157895 14771:0.666667 14777:0.666667 14820:0.5 14913:0.1 14922:0.305085 14925:0.1 14966:1 14975:1 15038:0.0645161 15046:0.142857 15164:0.5 15170:0.444444 15341:0.2 15358:0.0909091 15441:0.5 15452:0.142857 15486:0.0833333 15698:0.2 15726:0.0136986 15728:0.166667 15901:0.25 15974:0.416667 15980:1 16049:1 16147:1 16171:0.333333 16286:1 16350:1 16404:1 16568:0.333333 16690:0.5 16791:0.0909091 16946:0.25 17202:0.2 17239:0.5 17241:1 17259:0.25 17291:0.25 17397:0.0909091 17581:0.5 17588:0.333333 17666:0.5 17701:0.0769231 17934:0.111111 17949:0.666667 17952:1 17990:0.2 18009:0.2 18263:0.2 18313:0.111111 18491:0.235294 18576:0.5 18618:0.5 18732:0.5 18774:1 18901:0.2 18927:1 19086:0.5 19104:0.166667 19240:0.0714286 19437:1 19525:1 19575:0.272727 19766:1 19923:0.1 19932:0.125 20040:1 20122:0.166667 20164:1 20266:0.2 20398:1 20401:1 20520:1 20553:1 20591:0.142857 20760:1 20888:1 20945:1 21201:0.5 21258:1 21286:0.5 21358:1 21405:1 21429:0.2 21500:0.692308 21566:0.5 21596:0.0769231 21789:1 21873:1 21927:0.25 22148:0.15 22153:0.142857 22211:0.5 22215:0.25 22241:0.5 22278:0.333333 22318:0.333333 22342:0.25 22369:0.1 22489:0.2 22544:1 22576:1 22638:0.25 22642:0.133333 22720:0.222222 22772:1 22855:0.333333 23103:1 23112:0.142857 23143:0.0666667 23166:0.5 23213:0.266667 23258:0.169643 23283:0.142857 23358:0.111111 23380:0.2 23391:0.25 23401:0.333333 23435:0.0714286 23450:1 23499:0.5 23558:1 23665:0.666667 23732:0.333333 23871:0.333333 23879:0.0769231 23880:0.333333 23897:0.2 23934:0.5 23952:1 23991:1 24131:0.25 24149:0.352941 24168:0.333333 24326:1 
1 81:0.0520833 535:0.333333 998:0.5 1132:0.368421 1145:0.125 1211:0.333333 1231:1 1545:0.142857 2132:0.142857 2189:0.428571 2326:1 2328:0.666667 2342:1 2345:0.04 2373:0.04 2389:0.0625 2495:0.181818 2541:0.333333 2568:0.333333 2571:0.188119 2575:0.060241 2576:0.0789474 2732:0.0509554 2741:0.16 2743:0.0384615 2837:0.0416667 2859:0.0628931 2877:0.08 3221:0.25 3375:0.25 3399:1 3590:0.1 3642:0.2 3651:0.0526316 3753:0.5 4044:0.2 4569:0.25 4700:0.5 4747:1 4774:1 5079:0.142857 5182:0.666667 5564:0.0625 5589:0.285714 6376:0.666667 6382:0.0555556 6448:0.2 6487:1 6828:0.5 7235:0.0625 7778:0.5 7950:0.333333 8108:0.25 8296:0.25 8642:1 8760:0.25 8963:0.166667 9086:1 9366:0.125 9382:0.0285714 9436:0.166667 9537:0.5 9874:0.0666667 10123:0.0909091 10481:0.5 10540:0.666667 10708:0.230769 11105:1 11301:0.0740741 11363:0.5 11371:0.0625 11432:0.333333 11657:0.5 11941:0.5 12087:0.115385 12242:0.05 12367:0.0993789 12544:0.0606061 12631:0.0833333 12710:0.0909091 13125:0.375 13302:1 13602:1 14153:1 14209:0.4 14405:0.02 14406:0.2 14411:0.142857 14449:0.142857 14609:0.166667 14780:0.25 14922:0.0677966 14925:0.3 14937:0.5 15038:0.0967742 15142:0.5 15260:0.2 15424:0.142857 15452:0.142857 15660:0.333333 15734:0.333333 16563:0.25 16664:0.5 16706:1 16749:1 16845:0.181818 17018:0.0833333 17030:0.333333 17153:0.2 17373:0.5 17535:1 17730:1 17849:0.0434783 17942:0.125 17990:0.2 18007:0.5 18108:0.75 18313:0.111111 18792:0.333333 19173:0.2 19238:0.5 19776:0.2 19923:0.2 20029:0.25 20126:0.5 21003:1 21167:0.25 21168:0.25 21404:0.2 21429:0.2 21479:1 21564:0.714286 21623:0.6 21625:1 21993:0.166667 22101:0.5 22563:0.333333 23051:0.5 23112:0.142857 23140:0.0714286 23258:0.196429 23358:0.222222 23380:0.2 23693:1 23879:0.384615 24069:1 24149:0.117647 24238:1 24300:0.0625 
1 57:1 63:0.333333 81:0.3125 93:0.2 135:0.25 213:0.2 270:0.111111 486:0.166667 498:0.5 749:0.5 902:0.2 913:0.0555556 923:0.0833333 993:0.166667 1092:0.142857 1145:0.125 1323:0.333333 1560:1 1778:0.5 1973:0.04 1980:0.125 2045:1 2078:1 2190:1 2335:0.5 2344:0.25 2345:0.08 2354:0.117647 2356:0.16129 2441:0.0909091 2495:0.0454545 2518:0.166667 2555:0.166667 2565:0.125 2567:0.2 2571:0.0990099 2575:0.337349 2576:0.526316 2641:1 2665:0.25 2732:0.101911 2738:1 2741:0.24 2743:0.0769231 2837:0.0833333 2859:0.0754717 2878:0.0588235 2915:0.111111 3017:0.5 3193:1 3252:1 3253:1 3428:0.5 3555:0.166667 3651:0.263158 3660:1 3708:1 3766:0.666667 3836:0.166667 3978:0.285714 4003:0.25 4039:0.5 4078:0.25 4140:0.333333 4188:0.142857 4272:0.5 4538:0.0357143 4639:1 4737:0.125 4820:0.0666667 4942:0.5 5079:0.142857 5150:1 5224:1 5372:0.333333 5382:0.5 5396:0.5 5416:1 5541:1 5564:0.0625 5591:1 5850:0.25 5921:0.142857 6005:0.125 6102:0.166667 6140:0.333333 6225:0.2 6362:0.666667 6376:0.333333 6462:1 6505:0.6 6652:0.272727 6707:0.4 7075:1 7321:0.166667 7625:0.5 7810:0.5 7950:0.333333 8104:0.153846 8108:0.125 8131:0.272727 8152:0.0666667 8191:0.333333 8296:0.5 8325:0.2 8482:1 8525:1 8583:0.2 8760:0.25 8810:0.466667 9120:0.25 9143:0.047619 9146:1 9174:0.142857 9241:1 9382:0.0857143 9415:0.333333 9436:0.166667 9498:1 9652:0.333333 9721:0.333333 9839:0.285714 9896:0.5 10216:0.5 10427:1 10475:0.5 10671:1 10770:0.25 11050:1 11124:0.333333 11213:1 11364:0.5 11371:0.1875 11476:0.125 11478:0.266667 11604:0.5 11641:0.176471 11675:0.285714 11731:0.166667 11861:0.666667 11960:0.666667 12029:0.25 12078:0.142857 12344:0.166667 12367:0.118012 12455:0.333333 12540:0.333333 12544:0.242424 12556:1 12595:0.2 12699:1 12710:0.0909091 12756:1 12927:0.5 13110:0.142857 13159:1 13164:0.0833333 13513:0.117647 13568:1 13594:0.25 13729:0.333333 13917:1 13976:0.5 13985:1 14033:1 14035:0.2 14282:0.2 14336:0.1 14403:0.166667 14405:0.04 14406:0.2 14411:0.142857 14499:0.333333 14735:0.0526316 14922:0.152542 14925:0.2 14941:0.5 14993:0.5 15140:1 15150:0.206897 15161:0.111111 15289:0.166667 15452:0.428571 15866:0.5 15901:0.5 15974:0.0833333 16009:1 16155:0.342857 16303:0.5 16370:1 16690:0.5 16791:0.0909091 17018:0.0416667 17031:0.5 17098:0.5 17124:1 17176:1 17202:0.2 17218:1 17632:0.333333 17637:1 17897:0.2 17949:0.333333 18215:0.333333 18499:1 18606:0.333333 18798:1 18940:0.125 19073:1 19123:1 19390:0.037037 19923:0.1 20122:0.166667 20237:0.166667 20266:0.2 20375:0.5 20561:1 20789:0.0769231 20930:0.25 21057:1 21116:1 21165:1 21429:0.3 21462:1 21506:0.166667 21772:0.333333 22205:0.5 22341:0.2 22342:0.375 22425:0.333333 22486:0.333333 22510:0.25 22514:0.25 22520:1 22550:0.2 22588:1 22618:1 22697:0.142857 22742:0.2 22894:0.333333 23030:1 23087:0.25 23143:0.266667 23213:0.0666667 23258:0.196429 23271:0.0909091 23299:0.5 23358:0.185185 23391:0.25 23530:0.25 23728:0.142857 23856:0.5 23871:0.166667 24113:1 24145:1 24149:0.235294 24177:1 24348:1 24378:0.333333 24421:0.3 24429:0.272727 
1 76:0.181818 81:0.09375 121:0.125 268:0.0625 517:1 717:1 737:1 834:0.230769 923:0.166667 988:0.1 1421:0.2 1442:1 1542:1 1579:1 1643:0.5 2354:0.0196078 2411:0.333333 2495:0.0681818 2568:0.666667 2571:0.049505 2575:0.060241 2576:0.0526316 2715:0.0666667 2732:0.0700637 2741:0.04 2743:0.0384615 2788:0.25 2840:1 2859:0.0880503 3036:1 3628:0.0243902 3651:0.105263 3656:0.0769231 3674:0.25 3731:1 3973:0.5 4013:1 4139:0.2 4468:0.333333 4538:0.0357143 4658:1 4737:0.208333 4902:1 5389:0.25 5678:0.333333 5730:0.5 5878:1 6088:0.5 6505:0.2 6552:0.0769231 7038:1 7479:0.0454545 8104:0.192308 8152:0.133333 8577:0.5 8776:0.5 8937:0.5 8980:0.25 9077:0.5 9316:1 9380:0.333333 9382:0.0571429 9442:1 9546:0.5 10130:0.5 10218:0.5 10225:1 10240:0.5 10474:0.166667 10538:0.4 11089:1 11137:0.142857 11164:0.1 11371:0.25 11585:0.25 11592:1 12242:0.0333333 12312:1 12367:0.0776398 12544:0.030303 12631:0.0833333 12667:0.333333 12927:0.5 13007:1 13093:0.5 13125:0.125 13182:1 13698:1 13789:0.333333 14035:0.4 14323:0.222222 14405:0.06 14411:0.142857 14567:0.0416667 14735:0.105263 14917:0.2 14922:0.20339 15038:0.0322581 15150:0.0344828 15170:0.222222 15281:0.166667 15289:0.333333 15528:0.333333 15723:1 15744:0.5 15974:0.0833333 16298:1 16303:0.5 16354:1 16594:0.5 16875:1 17025:1 17213:0.333333 17329:0.333333 17514:0.666667 17673:0.0714286 18015:0.333333 18032:1 18198:1 18215:0.333333 18261:0.5 18263:0.2 18659:0.5 18764:0.25 18898:1 18942:0.5 19009:0.5 19166:1 20043:0.166667 20237:0.166667 20291:0.333333 20449:0.25 21168:0.25 21325:0.333333 21596:0.153846 21913:0.142857 22083:1 22148:0.05 22154:0.333333 22215:0.125 22318:0.166667 22328:0.333333 22342:0.125 22347:0.25 22521:0.2 22888:0.0909091 23258:0.0803571 23271:0.0909091 23282:1 23358:0.148148 24421:0.2 
1 6:1 81:0.15625 490:0.333333 491:1 511:1 610:0.333333 691:0.333333 834:0.153846 913:0.0555556 988:0.3 1128:1 1145:0.125 1329:0.333333 1563:1 1646:0.25 1719:1 1980:0.125 2103:0.666667 2145:1 2328:0.333333 2345:0.2 2354:0.0588235 2356:0.129032 2373:0.08 2389:0.145833 2441:0.181818 2452:1 2495:0.0454545 2500:0.2 2536:0.0333333 2553:0.25 2555:0.166667 2565:0.0625 2571:0.188119 2575:0.0240964 2576:0.105263 2715:0.133333 2732:0.101911 2741:0.36 2743:0.153846 2788:0.25 2859:0.138365 2877:0.04 2956:0.125 2993:0.888889 3160:1 3221:0.5 3322:0.333333 3516:0.666667 3523:1 3628:0.097561 3642:0.4 3651:0.105263 3656:0.461538 3678:1 3759:0.0454545 3766:1 3841:0.142857 3851:0.5 3924:0.12 4086:0.0769231 4131:0.5 4188:0.285714 4215:0.0909091 4477:0.666667 4518:0.666667 4524:0.5 4538:0.178571 4737:0.208333 4957:0.363636 5064:0.5 5087:1 5141:0.25 5386:0.125 5473:1 5932:1 5948:0.166667 5985:1 6030:0.4 6078:0.0384615 6102:0.166667 6126:0.5 6178:0.5 6377:1 6382:0.138889 6383:0.5 6467:0.8 6505:0.2 6737:0.5 6841:1 6876:0.333333 6935:0.5 7033:0.5 7124:0.1 7273:1 7429:0.5 7480:0.25 7699:0.5 7730:0.5 7805:0.166667 8054:0.571429 8104:0.115385 8108:0.25 8152:0.133333 8223:1 8519:0.5 8554:0.25 8760:0.25 8810:0.0666667 9009:0.181818 9094:0.5 9107:0.0909091 9235:0.166667 9373:0.2 9382:0.0857143 9622:0.333333 9652:1 9721:0.333333 9839:0.428571 9897:0.333333 10053:0.125 10251:0.333333 10322:1 10346:0.333333 10534:0.5 10672:0.25 10818:1 10991:0.333333 11171:0.2 11235:0.5 11288:0.5 11301:0.037037 11371:0.0625 11395:1 11459:1 11468:0.5 11478:0.333333 11529:1 11605:1 11675:0.142857 11803:0.0833333 11978:0.142857 12038:1 12057:0.5 12241:0.75 12242:0.0666667 12314:0.333333 12344:0.166667 12367:0.167702 12474:0.5 12544:0.151515 12595:0.2 12610:1 12710:0.363636 12719:1 12727:1 12812:0.142857 12960:1 13262:1 13277:1 13346:0.333333 13513:0.0588235 13564:1 13872:0.2 14009:0.166667 14100:0.4 14103:0.428571 14285:0.666667 14405:0.12 14567:0.0833333 14578:0.0714286 14611:0.2 14619:0.333333 14708:1 14735:0.0526316 14859:0.25 14922:0.118644 15004:0.0833333 15016:1 15038:0.0645161 15136:0.2 15150:0.0689655 15164:0.5 15260:0.0666667 15289:0.166667 15424:0.142857 15698:0.4 15719:0.666667 15737:0.25 15938:0.25 16010:0.5 16188:1 16299:0.5 16313:1 16350:1 16372:1 16512:0.333333 16572:1 16609:0.166667 16685:1 16845:0.454545 17018:0.0416667 17118:0.625 17361:0.333333 17363:0.25 17447:0.5 17559:1 17673:0.0714286 17820:1 17877:0.666667 17949:0.333333 18094:0.5 18215:0.333333 18288:0.25 18348:1 18681:1 18735:0.5 18816:0.333333 18837:0.5 18975:1 19116:1 19173:0.2 19178:0.166667 19180:0.2 19303:0.375 19397:1 19558:1 19604:0.4 19620:0.333333 19748:0.166667 20089:1 20210:1 20223:1 20388:0.5 20551:1 20679:1 20761:0.5 20941:1 21022:0.333333 21023:0.5 21168:0.25 21368:0.666667 21386:1 21596:0.230769 21688:0.5 21758:0.111111 21772:0.333333 21922:0.333333 21937:1 22105:0.1 22148:0.05 22253:0.333333 22335:1 22339:0.5 22342:0.125 22425:0.333333 22455:0.5 22461:0.25 22575:0.2 22697:0.142857 22742:0.4 22909:1 23112:0.142857 23143:0.466667 23152:1 23258:0.241071 23271:0.0909091 23358:0.111111 23400:0.5 23401:0.333333 23410:0.2 23763:1 23964:0.2 23967:0.25 24064:0.5 24069:0.25 24124:1 24149:0.0588235 24161:0.2 24197:1 24324:1 24340:1 24355:0.5 24444:0.333333 
1 68:0.25 461:0.1 751:0.111111 919:0.666667 1020:0.25 1180:1 1599:0.181818 1797:1 1946:0.25 1983:0.5 2356:0.612903 2494:1 2654:0.0909091 2732:0.0127389 3871:0.125 4002:0.2 4188:0.857143 5142:0.125 5772:0.125 6451:0.333333 7168:0.2 7207:0.333333 9699:0.5 10126:0.25 10357:1 10923:1 11194:0.5 11454:0.2 11692:0.166667 11768:0.333333 12121:0.666667 12123:0.5 12283:0.125 12572:0.5 12659:1 12675:0.0869565 12859:0.25 12958:0.0769231 13231:0.25 13346:0.666667 13648:1 13753:0.0909091 13907:0.5 14489:0.5 14591:0.5 15263:0.166667 15584:1 15770:0.333333 15806:0.25 15825:1 16316:0.142857 16527:1 16538:0.166667 16608:0.125 17063:0.333333 17693:0.0833333 19327:0.142857 19793:0.111111 20918:0.5 21264:0.4 21324:1 21365:0.5 21832:0.25 22458:1 22631:0.5 22894:0.333333 23143:0.0666667 23258:0.0178571 
1 12:0.8 73:1 76:0.181818 81:0.291667 93:0.04 123:1 135:0.125 164:1 215:0.75 226:0.25 364:1 368:0.125 380:0.5 425:0.333333 478:0.5 486:0.333333 684:0.2 699:1 751:0.333333 775:1 781:0.142857 834:0.230769 843:1 867:1 902:0.4 919:0.333333 988:0.4 993:0.166667 1010:1 1016:0.142857 1020:0.5 1044:0.25 1109:0.5 1136:1 1145:0.125 1249:0.0714286 1331:0.125 1355:1 1367:0.25 1370:0.111111 1400:0.5 1477:1 1495:1 1511:0.333333 1545:0.714286 1583:0.333333 1599:0.0909091 1650:1 1716:0.25 1769:0.333333 1893:0.5 1935:0.166667 2038:0.2 2080:0.2 2103:0.333333 2107:0.285714 2151:0.25 2220:1 2282:0.25 2343:0.666667 2345:0.08 2354:0.0784314 2356:0.0322581 2373:0.28 2389:0.0208333 2419:1 2429:0.5 2432:1 2448:1 2459:0.25 2476:1 2495:0.909091 2518:0.166667 2536:0.35 2555:0.5 2565:0.125 2571:0.326733 2575:0.192771 2576:0.157895 2665:0.125 2692:0.103448 2699:0.2 2715:0.266667 2732:0.089172 2741:0.36 2743:0.153846 2774:0.5 2837:0.0416667 2859:0.213836 2878:0.235294 2993:0.111111 3017:0.333333 3042:1 3135:1 3208:1 3229:1 3279:0.5 3288:0.5 3315:1 3353:0.0769231 3449:1 3451:1 3524:1 3628:0.121951 3651:1 3656:0.615385 3774:0.333333 3841:0.285714 3846:0.6 3847:1 3851:0.166667 3852:0.27451 3889:0.5 3924:0.48 3961:0.111111 3966:1 3984:1 4020:1 4165:1 4170:0.75 4223:0.142857 4228:0.0769231 4276:1 4282:1 4308:1 4309:0.136364 4518:1 4538:0.107143 4820:0.0666667 4846:0.1 4953:1 4958:1 4990:0.5 5106:0.25 5107:0.5 5175:1 5211:1 5260:1 5297:0.2 5345:0.166667 5419:0.25 5714:1 5731:0.333333 5747:0.5 5775:0.5 5844:1 6005:0.125 6032:1 6071:1 6078:0.0384615 6102:0.166667 6134:1 6180:1 6225:0.2 6258:0.5 6364:0.5 6372:0.5 6382:0.0555556 6411:1 6454:1 6458:1 6505:0.2 6583:1 6595:0.5 6652:0.363636 6661:0.5 6673:0.210526 6709:0.166667 6786:0.5 6814:1 6876:0.166667 6878:0.25 6889:0.153846 6951:1 7009:0.2 7038:0.5 7072:0.25 7073:0.333333 7078:0.25 7100:1 7124:0.3 7204:0.125 7207:0.333333 7235:0.0625 7258:0.25 7296:0.5 7433:1 7447:0.333333 7508:0.125 7575:0.25 7752:0.333333 7805:0.166667 7961:1 7963:0.5 8090:0.666667 8104:0.230769 8108:0.125 8152:0.2 8161:0.5 8296:0.25 8325:0.2 8395:0.333333 8412:1 8512:0.25 8525:0.125 8526:0.2 8752:1 8770:1 8775:0.333333 8810:0.266667 8980:0.25 9009:0.0909091 9116:0.25 9143:0.142857 9311:0.111111 9353:0.5 9382:0.342857 9428:0.5 9434:0.5 9436:0.166667 9438:0.333333 9548:0.5 9711:0.2 9721:0.333333 9839:0.714286 10058:0.2 10075:1 10216:0.5 10240:0.5 10253:1 10284:0.5 10360:1 10447:1 10460:0.333333 10478:0.5 10479:1 10516:1 10538:0.1 10729:0.8 10763:0.333333 10770:0.25 10886:0.5 10956:0.25 11000:0.25 11022:1 11033:0.5 11042:1 11132:0.125 11134:1 11216:0.5 11279:0.142857 11371:0.1875 11378:0.25 11394:1 11434:0.6 11468:0.125 11476:0.125 11477:0.1 11478:0.2 11656:1 11658:0.2 11680:0.5 11721:0.333333 11737:1 11789:1 11812:0.333333 11835:0.25 11849:1 11902:0.333333 11956:0.25 11979:1 12038:1 12045:0.333333 12242:0.0333333 12277:0.1 12294:1 12344:0.5 12367:0.242236 12542:0.2 12544:0.151515 12564:0.5 12576:1 12603:1 12698:0.666667 12710:0.363636 12738:0.285714 12760:1 12762:1 12929:1 12939:1 12991:0.5 13018:0.142857 13098:1 13110:0.571429 13112:1 13163:0.333333 13248:0.5 13272:1 13436:0.142857 13480:1 13494:1 13555:0.181818 13564:0.333333 13674:0.5 13711:1 13889:1 13926:0.142857 13946:0.166667 13949:1 14031:0.333333 14217:0.5 14264:0.2 14281:1 14282:0.1 14312:1 14328:0.5 14358:1 14405:0.16 14567:0.25 14590:0.25 14653:0.333333 14659:0.333333 14719:1 14725:0.166667 14735:0.157895 14748:0.4 14832:1 14859:0.25 14922:0.186441 14925:0.2 15038:0.225806 15046:0.285714 15069:0.333333 15079:1 15127:1 15150:0.172414 15161:0.111111 15164:0.5 15235:0.5 15339:1 15341:0.6 15481:0.5 15534:1 15536:0.142857 15590:0.333333 15624:1 15715:0.333333 15794:1 15974:0.333333 15986:1 16279:0.333333 16359:0.5 16395:1 16404:0.111111 16461:0.5 16549:0.25 16745:0.125 16791:0.363636 16927:0.25 17202:0.2 17344:1 17366:0.333333 17380:1 17397:0.0909091 17693:0.166667 17869:0.5 17883:0.333333 17906:0.25 17934:0.111111 17976:1 18094:1 18181:1 18215:0.333333 18241:0.25 18289:1 18313:0.111111 18359:1 18369:0.25 18500:0.6 18626:0.0833333 18669:0.75 18718:0.125 18792:0.333333 18940:0.125 18969:0.5 19035:0.5 19179:0.5 19180:0.2 19185:1 19202:0.25 19222:0.5 19304:0.5 19575:0.0909091 19590:0.2 19632:1 19635:0.2 19814:0.5 19881:1 20100:1 20215:0.25 20266:0.2 20310:0.5 20317:0.0526316 20432:0.25 20468:0.2 20526:0.5 20671:0.5 20711:0.3125 20795:1 20891:1 20966:0.5 20973:1 21067:0.333333 21099:0.5 21152:1 21168:0.25 21320:1 21375:1 21377:1 21410:1 21435:0.5 21523:1 21657:1 21897:0.5 21905:0.333333 21909:1 21976:1 21996:0.5 22024:1 22027:0.333333 22092:0.5 22148:0.2 22175:0.333333 22304:1 22342:0.125 22347:0.25 22369:0.4 22450:0.5 22490:0.25 22530:1 22534:1 22642:0.0666667 22654:1 22761:1 22762:1 22778:1 22814:0.2 22893:0.0909091 22894:0.333333 22903:1 22910:1 22919:0.133333 22920:0.5 23059:0.666667 23104:0.333333 23112:0.857143 23143:0.2 23258:0.4375 23271:0.363636 23283:0.428571 23305:1 23358:0.111111 23364:1 23435:0.0714286 23466:1 23665:0.333333 23705:1 23714:1 23728:0.142857 23817:1 23834:0.5 23843:1 23905:1 23908:0.5 23942:1 24003:1 24069:0.25 24149:0.470588 24173:1 24421:0.1 24425:1 24438:1 
1 53:0.142857 66:0.333333 76:0.181818 79:1 81:0.208333 121:0.125 250:0.333333 296:1 446:0.666667 517:0.5 586:0.25 625:0.4 657:1 700:1 751:0.111111 754:0.25 834:0.0769231 862:0.5 883:0.166667 902:0.2 913:0.333333 949:1 988:0.3 1145:0.125 1195:0.6 1217:0.5 1428:0.375 1514:1 1525:1 1674:0.833333 1716:0.25 1719:1 1876:0.5 1893:0.5 1911:0.5 1980:0.25 2006:1 2026:1 2049:1 2073:0.125 2282:0.25 2321:1 2344:0.125 2345:0.32 2354:0.0392157 2356:0.0967742 2373:0.32 2389:0.125 2495:0.25 2512:0.25 2536:0.0833333 2565:0.0625 2571:0.227723 2575:0.168675 2576:0.0789474 2642:1 2715:0.0666667 2732:0.235669 2741:0.32 2807:0.142857 2810:1 2859:0.421384 2877:0.08 2955:0.8 2956:0.125 3112:0.142857 3214:0.166667 3251:1 3353:0.0769231 3443:1 3467:0.5 3529:1 3532:1 3548:1 3549:1 3555:0.333333 3628:0.0487805 3631:1 3642:1 3651:0.105263 3656:0.0769231 3766:0.666667 3841:0.142857 3846:0.0666667 3852:0.0980392 3885:0.5 3886:0.5 3893:0.0714286 3924:0.16 3961:0.111111 3979:0.285714 3991:1 4002:0.4 4086:1 4254:1 4298:0.5 4523:0.25 4538:0.357143 4580:0.0714286 4832:0.0714286 4837:1 4989:0.2 5050:0.5 5079:0.285714 5094:0.5 5321:0.375 5345:0.166667 5352:1 5425:0.2 5448:0.4 5451:0.142857 5452:1 5589:0.142857 5602:0.1 5921:0.142857 6040:0.142857 6042:0.4 6078:0.0384615 6129:1 6270:0.333333 6383:0.5 6505:0.2 6509:0.666667 6527:1 6635:1 6670:0.25 6685:0.142857 6815:1 6839:1 6952:0.153846 7124:0.7 7235:0.0625 7272:1 7286:0.5 7321:0.166667 7406:0.363636 7427:0.111111 7447:0.666667 7497:1 7510:0.5 7540:1 7789:1 7805:0.166667 7870:0.0344828 7954:1 8090:0.333333 8104:0.192308 8142:1 8152:0.0666667 8296:0.25 8308:0.727273 8375:1 8385:0.5 8545:0.285714 8554:0.25 8614:0.125 8748:0.5 8754:0.166667 8793:0.333333 8825:0.5 8937:0.5 8964:0.5 9007:0.0555556 9072:0.333333 9097:0.333333 9103:1 9107:0.181818 9109:0.75 9110:0.285714 9143:0.142857 9183:0.333333 9231:1 9237:1 9266:0.2 9278:0.666667 9382:0.514286 9434:0.25 9540:1 9592:0.142857 9785:0.666667 9839:0.142857 9846:0.5 9854:0.5 9913:0.25 9945:0.666667 10008:1 10035:0.5 10240:0.5 10376:0.5 10437:1 10538:0.1 10546:1 10664:1 10775:0.666667 10837:1 10865:0.2 10867:0.125 10973:0.333333 11132:0.125 11137:0.285714 11164:0.1 11167:0.181818 11171:0.2 11208:0.111111 11301:0.185185 11359:0.285714 11371:0.25 11477:0.1 11478:0.0666667 11564:0.5 11583:1 11920:0.181818 11946:0.428571 11978:0.142857 12032:0.333333 12242:0.0166667 12255:0.5 12367:0.276398 12372:0.5 12381:0.5 12474:0.5 12542:0.2 12544:0.030303 12552:1 12610:0.2 12612:1 12631:0.666667 12675:0.0869565 12710:0.181818 12726:1 12812:0.142857 12838:1 12990:1 13109:0.0909091 13146:0.75 13169:1 13341:0.222222 13513:0.0588235 13672:0.111111 13824:0.333333 13843:0.333333 13859:0.25 13918:0.0714286 13961:0.133333 14082:0.25 14282:0.1 14336:0.2 14356:0.166667 14384:0.375 14405:0.1 14406:0.4 14567:0.166667 14610:0.4 14859:0.25 14913:0.1 14922:0.305085 14925:0.1 15038:0.0645161 15150:0.103448 15193:0.5 15215:0.6 15231:0.4 15263:1 15281:0.166667 15289:0.5 15320:0.4 15354:0.5 15358:0.181818 15372:1 15380:1 15437:1 15477:0.25 15567:1 15584:0.125 15620:0.318182 15628:0.5 15698:0.2 15726:0.273973 15806:1 15835:0.25 15853:0.25 15938:0.25 15974:0.0833333 15999:1 16211:0.25 16256:0.25 16259:1 16275:0.5 16313:0.222222 16316:0.142857 16361:0.5 16375:0.5 16574:1 16704:0.5 16762:0.0769231 16845:0.545455 16849:0.5 16863:0.5 16889:0.0833333 17018:0.333333 17043:0.857143 17385:0.5 17389:0.25 17410:0.5 17621:1 17644:0.333333 17673:0.0714286 17693:0.5 17780:0.333333 17781:0.333333 17784:0.333333 17849:0.173913 17869:0.333333 17896:0.25 17960:1 18122:0.2 18258:1 18313:0.222222 18338:1 18474:0.3 18523:1 18777:0.5 18934:1 18942:0.5 19081:0.5 19348:0.5 19359:0.3 19377:0.2 19421:0.5 19704:0.8 19747:0.285714 20123:0.625 20248:0.5 20266:0.2 20419:0.1 20460:1 20535:1 20541:1 20551:1 20591:0.142857 20688:1 20717:0.0714286 20838:0.333333 21087:0.25 21124:0.166667 21168:0.5 21202:0.222222 21368:0.333333 21429:0.1 21500:0.0769231 21506:0.166667 21596:0.153846 21608:0.666667 21646:0.5 21758:0.0555556 21764:0.105263 21905:0.666667 21913:0.285714 21914:0.333333 21973:0.25 21991:0.142857 22010:1 22015:0.59375 22076:1 22105:0.1 22153:0.285714 22189:0.142857 22201:0.833333 22234:0.333333 22246:0.666667 22253:0.666667 22260:0.5 22342:0.125 22354:0.333333 22447:0.166667 22484:0.0833333 22581:1 22615:0.142857 22634:0.5 22840:1 22888:0.181818 22916:1 23060:0.25 23073:0.166667 23143:0.133333 23187:0.5 23189:1 23258:0.1875 23271:0.0909091 23358:0.0740741 23391:0.25 23423:0.142857 23562:1 23633:0.666667 23728:0.142857 23844:1 23872:0.5 23897:0.2 23905:1 23964:0.2 23967:0.125 24149:0.176471 24154:0.142857 24178:0.0769231 24251:1 24333:0.2 
1 25:0.2 35:1 81:0.28125 93:0.02 176:1 215:0.25 226:0.25 341:0.25 425:0.333333 528:0.0666667 781:0.285714 785:0.5 987:0.25 1145:0.125 1249:0.214286 1332:0.1 1365:0.333333 1375:0.5 1427:1 1716:0.25 1747:0.111111 1766:1 1960:1 1980:0.125 2038:0.2 2054:1 2075:1 2103:0.666667 2132:0.142857 2217:0.4 2321:0.5 2345:0.28 2354:0.0784314 2356:0.193548 2373:0.04 2389:0.166667 2441:0.0909091 2495:0.25 2536:0.05 2565:0.0625 2571:0.217822 2575:0.192771 2576:0.0789474 2586:1 2692:0.0344828 2702:0.25 2715:0.133333 2732:0.305732 2741:0.52 2743:0.0769231 2750:0.5 2812:0.25 2837:0.0833333 2859:0.226415 2878:0.117647 2915:0.166667 2975:0.4 3017:0.333333 3101:0.5 3338:0.2 3353:0.192308 3508:0.75 3628:0.0731707 3651:0.157895 3656:0.153846 3746:0.5 3753:0.5 3760:1 3811:0.333333 3852:0.0196078 3858:1 4086:0.0769231 4214:0.0666667 4222:0.25 4520:1 4538:0.142857 4737:0.0416667 4760:0.25 4811:1 4942:0.5 5030:0.4 5066:0.333333 5079:0.142857 5080:1 5104:0.5 5182:0.333333 5396:0.5 5407:0.5 5594:1 5620:0.2 5704:0.5 5850:0.25 5890:0.2 6045:0.5 6078:0.115385 6168:0.166667 6196:0.666667 6314:0.5 6382:0.0555556 6383:0.5 6498:1 6561:0.333333 6590:0.5 6595:0.5 6685:0.285714 6711:0.125 6730:0.5 6737:0.5 6787:0.5 6864:1 6899:1 6911:1 6940:0.5 6964:1 7124:0.3 7235:0.0625 7239:0.5 7258:0.25 7284:0.4 7341:0.5 7350:0.5 7366:0.166667 7375:1 7406:0.0909091 7447:0.333333 7479:0.227273 7484:0.333333 7730:0.5 7870:0.482759 7994:0.111111 8047:1 8064:1 8104:0.192308 8108:0.25 8152:0.2 8154:1 8236:0.2 8267:1 8308:0.636364 8353:1 8365:1 8408:0.5 8525:0.125 8527:0.0714286 8571:0.25 8588:0.333333 8793:0.333333 8810:0.0666667 8829:0.5 9007:0.111111 9110:0.285714 9143:0.142857 9382:0.114286 9452:0.5 9654:0.5 9768:1 9817:0.0714286 9839:0.142857 10058:0.2 10080:0.25 10170:0.5 10389:0.2 10396:0.25 10522:0.5 10538:0.1 10634:0.125 10705:0.333333 10727:0.5 10750:0.5 10814:1 10833:1 10848:0.333333 10950:0.333333 11055:0.5 11132:0.125 11167:0.0909091 11301:0.111111 11357:0.125 11371:0.0625 11434:0.1 11476:0.125 11477:0.2 11478:0.266667 11500:1 11522:1 11540:0.5 11557:0.5 11578:0.4 11650:0.5 11657:0.5 11675:0.142857 11680:1 11711:1 11713:0.6 11731:0.166667 11797:0.25 11851:0.25 11947:0.25 11963:1 12008:1 12029:0.25 12032:0.666667 12128:0.5 12161:1 12242:0.1 12367:0.208075 12470:0.5 12501:1 12540:0.166667 12542:0.4 12544:0.30303 12589:0.1 12595:0.4 12675:0.0869565 12698:0.333333 12710:0.0909091 12812:0.285714 12828:0.666667 12878:0.333333 12967:0.5 13035:0.2 13125:0.125 13205:0.0714286 13238:0.166667 13310:0.166667 13341:0.111111 13432:0.5 13510:0.222222 13513:0.0588235 13672:0.555556 13885:0.5 13961:0.0666667 14031:0.333333 14035:0.2 14116:0.2 14153:1 14187:0.2 14264:0.2 14323:0.555556 14336:0.2 14356:0.166667 14384:0.125 14405:0.08 14411:0.142857 14417:1 14436:0.333333 14490:1 14496:0.2 14567:0.125 14581:0.333333 14607:0.333333 14645:0.0909091 14735:0.0526316 14838:0.285714 14859:0.25 14865:0.25 14922:0.237288 14925:0.3 14945:0.333333 15038:0.0967742 15046:0.142857 15048:0.285714 15102:0.333333 15111:0.666667 15139:1 15150:0.103448 15206:1 15251:1 15441:0.5 15452:0.285714 15486:0.0833333 15516:1 15586:0.285714 15592:1 15728:1 15746:1 15831:0.25 15868:1 15901:0.25 16010:1 16071:0.5 16205:0.5 16265:1 16288:0.5 16303:0.5 16305:0.333333 16404:0.222222 16461:0.5 16489:0.5 16568:0.333333 16580:1 16791:0.272727 16902:0.5 16946:0.75 16948:0.5 16959:0.5 17018:0.0833333 17202:0.2 17250:1 17581:1 17675:0.333333 17693:0.25 17876:1 17990:0.2 18004:0.2 18009:0.4 18039:0.5 18077:0.5 18122:0.2 18256:1 18326:1 18327:0.1 18546:0.25 18559:1 18677:0.25 18718:0.5 18747:1 18776:1 18823:1 18856:1 18902:1 18934:1 18940:0.375 19000:0.142857 19079:0.5 19129:0.25 19178:0.166667 19286:0.25 19377:0.2 19427:0.166667 19547:0.5 19611:0.5 19616:0.142857 19635:0.1 19923:0.1 19945:1 20043:0.166667 20059:1 20502:0.2 20582:0.05 20687:0.2 20700:0.5 20803:0.5 20819:0.333333 20988:0.333333 21168:0.75 21254:0.5 21264:0.4 21325:0.333333 21350:0.25 21429:0.1 21450:0.5 21608:0.142857 21704:0.111111 21750:0.2 21752:0.5 21764:0.0526316 21768:1 21834:1 21950:0.333333 21991:0.428571 22033:0.5 22148:0.05 22305:0.25 22318:0.333333 22342:0.125 22425:0.333333 22460:0.5 22491:0.5 22521:0.2 22559:1 22590:0.333333 22642:0.0666667 22769:1 23099:1 23112:0.285714 23143:0.133333 23162:1 23197:1 23213:0.0666667 23258:0.276786 23286:0.5 23358:0.296296 23423:0.142857 23437:0.333333 23498:1 23509:0.5 23571:0.2 23665:0.333333 23666:0.125 23674:0.333333 23848:1 23867:0.333333 23964:0.2 24001:0.5 24119:0.25 24149:0.176471 24257:0.25 24348:1 24359:0.5 24421:0.1 24441:1 
1 25:0.2 76:0.272727 81:0.25 232:0.2 418:1 490:0.333333 648:0.5 834:0.0769231 875:0.5 902:0.4 1057:1 1112:0.5 1218:0.166667 1310:0.5 1334:0.25 1545:0.428571 1674:0.333333 1724:1 1732:0.5 1758:0.5 1797:0.0714286 2038:0.4 2085:0.5 2205:0.5 2244:1 2314:0.333333 2319:1 2345:0.2 2354:0.0588235 2356:0.193548 2373:0.12 2389:0.0833333 2390:1 2429:0.5 2441:0.0909091 2495:0.363636 2565:0.0625 2571:0.0990099 2575:0.0843373 2576:0.0263158 2634:0.111111 2654:0.0909091 2692:0.103448 2715:0.0666667 2732:0.216561 2741:0.32 2743:0.115385 2808:0.5 2837:0.0833333 2841:0.333333 2859:0.163522 2863:0.5 2877:0.04 2878:0.0588235 2956:0.125 3023:0.333333 3108:0.333333 3211:0.625 3264:0.5 3353:0.0384615 3358:1 3360:1 3497:0.0714286 3514:1 3604:1 3651:0.315789 3656:0.0769231 3713:1 3759:0.590909 3852:0.0392157 3858:1 3924:0.12 4017:0.5 4086:0.0769231 4538:0.142857 4563:0.5 4650:0.166667 4846:0.1 4976:1 4989:0.2 5106:0.25 5209:0.0909091 5291:0.5 5296:0.25 5507:0.333333 5551:0.5 6078:0.0384615 6081:0.142857 6212:0.25 6307:1 6359:0.25 6376:0.333333 6382:0.0277778 6394:1 6505:0.2 6670:0.25 6914:1 6935:1 6960:0.1 6994:0.333333 7012:1 7178:0.25 7235:0.125 7261:1 7307:0.4 7312:0.0833333 7423:1 7438:0.5 7782:0.5 7792:0.5 7805:0.5 7866:0.2 7870:0.0689655 8021:1 8081:1 8100:1 8104:0.192308 8131:0.0909091 8152:0.133333 8380:1 8388:0.5 8458:0.2 8478:1 8554:0.5 8571:1 8736:0.2 8810:0.2 8833:0.333333 9048:1 9072:0.166667 9090:1 9093:0.111111 9111:1 9143:0.142857 9239:0.5 9311:0.111111 9382:0.2 9436:0.166667 9463:0.25 9464:0.666667 9874:0.0666667 9920:0.5 9941:1 9976:0.25 10008:0.166667 10039:0.142857 10284:0.5 10323:1 10396:0.25 10584:1 10637:1 10672:0.25 10813:1 11008:1 11087:1 11301:0.037037 11371:0.0625 11392:1 11434:0.1 11477:0.1 11560:0.142857 11634:0.170213 11675:0.142857 11731:0.166667 11900:0.5 11944:1 12051:0.25 12177:0.25 12242:0.05 12330:1 12344:0.166667 12367:0.18323 12375:0.5 12421:1 12455:0.333333 12465:1 12474:0.5 12544:0.121212 12958:0.0769231 13110:0.142857 13116:0.75 13142:1 13164:0.0833333 13188:0.4 13306:1 13310:0.277778 13513:0.176471 13542:1 13602:1 13672:0.111111 13787:0.142857 13914:0.5 13968:1 14000:0.75 14168:1 14198:1 14282:0.1 14405:0.04 14449:0.142857 14564:0.142857 14567:0.125 14611:0.2 14645:0.181818 14735:0.0526316 14842:0.333333 14855:1 14862:1 14865:0.5 14913:0.3 14922:0.118644 14925:0.2 15038:0.0645161 15069:0.333333 15150:0.137931 15157:0.5 15358:0.0909091 15370:1 15440:0.333333 15584:0.25 15612:0.5 15791:1 15839:1 15853:0.0833333 15901:0.5 15916:1 15956:1 15974:0.25 16010:0.5 16211:0.25 16230:0.25 16313:0.111111 16375:0.5 16476:0.5 16685:0.5 16791:0.0909091 16875:1 16957:0.5 17031:0.166667 17093:0.5 17118:0.25 17194:0.176471 17202:0.2 17264:1 17274:0.142857 17404:0.142857 17660:0.25 17690:0.333333 17718:0.5 17760:1 17794:1 17934:0.111111 18009:0.2 18166:0.75 18269:0.333333 18502:0.333333 18528:1 18690:0.25 18837:0.5 18867:1 18892:0.5 18940:0.125 18959:0.166667 18997:0.333333 19065:1 19236:1 19473:0.416667 19575:0.0909091 19604:0.2 19669:0.333333 19673:1 19748:0.166667 19913:1 19932:0.125 19937:1 20113:0.0909091 20266:0.2 20375:0.5 20468:0.2 20486:0.25 20555:0.5 20580:0.5 20661:0.5 20745:1 20777:1 20805:1 20843:1 20959:0.5 20992:0.25 21068:1 21113:0.5 21216:1 21295:1 21506:0.166667 21596:0.0769231 21764:0.0526316 21856:0.333333 21897:0.5 21902:1 21914:0.333333 21991:0.285714 22105:0.1 22148:0.25 22318:0.0833333 22372:0.166667 22433:1 22461:0.25 22534:0.2 22642:0.0666667 22676:1 22697:0.714286 22784:0.2 22836:0.111111 22917:1 22927:1 22964:0.25 23040:1 23067:0.5 23152:0.0833333 23164:0.5 23213:0.0666667 23258:0.214286 23271:0.0909091 23358:0.185185 23359:0.2 23530:0.25 23666:0.125 23674:0.333333 23678:0.142857 23737:0.111111 23766:1 24056:1 24082:0.5 24103:1 24358:1 24392:0.2 24394:1 24439:0.5 
1 21:0.5 63:0.333333 68:0.25 76:0.181818 81:0.375 93:0.04 135:0.375 144:1 279:0.25 377:0.1 428:0.5 461:0.4 486:0.5 498:0.5 574:1 781:0.142857 963:1 993:0.166667 998:1 1044:0.5 1057:0.5 1145:0.125 1213:1 1249:0.0714286 1323:0.333333 1332:0.2 1338:0.5 1367:0.25 1435:0.5 1716:0.25 1797:0.0714286 2103:0.333333 2240:0.5 2345:0.32 2354:0.117647 2356:0.16129 2373:0.4 2389:0.0416667 2495:0.0681818 2536:0.05 2565:0.1875 2571:0.346535 2575:0.144578 2576:0.184211 2692:0.0344828 2715:0.2 2732:0.127389 2741:0.4 2743:0.423077 2762:0.5 2837:0.0833333 2859:0.106918 2878:0.0588235 2881:0.125 2915:0.277778 3123:0.5 3131:0.142857 3141:0.5 3158:0.5 3253:1 3255:0.0714286 3458:0.5 3628:0.0731707 3651:0.210526 3766:0.333333 3841:0.285714 3852:0.0980392 3924:0.08 3975:0.2 3979:0.142857 4003:0.25 4170:0.5 4180:0.5 4228:0.153846 4276:0.125 4478:0.333333 4528:0.142857 4538:0.0714286 4678:0.5 4758:0.0714286 4761:1 4765:0.5 4833:1 4944:0.5 4951:0.2 4982:1 5020:0.0769231 5093:0.142857 5219:0.133333 5419:0.25 5451:0.142857 5551:0.25 5564:0.3125 5772:0.125 5780:0.285714 5786:0.25 5850:0.25 5887:0.0555556 5972:0.125 6005:0.125 6030:0.2 6078:0.0384615 6225:0.4 6362:0.333333 6382:0.0555556 6435:0.5 6466:0.666667 6551:0.333333 6740:1 6909:1 6918:0.666667 6965:0.5 7073:0.666667 7082:0.166667 7112:0.166667 7124:0.2 7204:0.25 7235:0.125 7240:0.214286 7284:0.2 7406:0.0909091 7417:0.333333 7575:0.25 7788:0.230769 8090:0.333333 8104:0.269231 8108:0.375 8131:0.181818 8194:1 8210:1 8314:1 8614:0.125 8760:1 8810:0.2 8815:1 9007:0.277778 9009:0.0909091 9093:0.111111 9143:0.238095 9174:0.0714286 9321:0.5 9330:1 9366:0.125 9382:0.142857 9434:0.5 9436:0.166667 9466:1 9503:1 9592:0.142857 9657:1 9662:0.166667 9685:1 9692:1 9699:0.25 9730:0.5 9756:0.2 9784:0.166667 9795:1 9800:1 9839:0.285714 9855:1 9932:0.333333 10014:0.142857 10161:0.25 10435:0.5 10576:1 10931:0.428571 10949:0.0833333 11135:0.285714 11167:0.0909091 11242:1 11279:0.142857 11371:0.125 11373:0.666667 11434:0.1 11454:0.4 11468:0.125 11478:0.0666667 11641:0.117647 11675:0.142857 11692:0.166667 11718:0.5 11820:1 11859:1 11914:0.2 11988:0.25 12019:0.333333 12081:0.125 12121:0.333333 12175:1 12223:0.333333 12242:0.0666667 12274:0.5 12324:1 12359:0.1 12367:0.189441 12516:0.25 12544:0.121212 12607:1 12609:0.5 12698:0.333333 12710:0.272727 12828:0.333333 12830:0.375 13111:0.2 13158:0.5 13188:0.2 13304:0.5 13324:0.25 13660:0.25 13694:0.4 13740:0.2 13935:1 14392:1 14403:0.166667 14405:0.06 14420:0.166667 14468:0.666667 14567:0.0833333 14578:0.0714286 14590:0.25 14591:0.5 14719:0.2 14725:0.166667 14735:0.0526316 14748:0.2 14755:1 14865:0.25 14917:0.2 14922:0.338983 14925:0.3 15046:0.142857 15069:0.333333 15150:0.103448 15358:0.0909091 15520:0.5 15576:0.5 15584:0.25 15635:1 15760:0.5 16054:0.2 16155:0.0285714 16229:0.666667 16454:1 16510:0.333333 16581:0.166667 16708:1 16733:1 16781:1 16791:0.272727 16833:1 16845:0.0909091 17202:1 17686:0.5 17693:0.0833333 17926:1 18347:0.666667 18536:0.5 18739:1 18792:0.166667 18894:0.375 19012:0.2 19079:0.5 19226:0.25 19236:1 19575:0.0909091 19781:0.5 19923:0.1 19980:1 20099:1 20293:0.142857 20375:1 20377:1 20924:1 21124:0.166667 21347:0.5 21365:0.5 21386:1 21429:0.1 21512:0.333333 21596:0.153846 21608:0.0952381 21805:1 21812:0.5 21991:0.142857 22148:0.25 22318:0.166667 22331:0.5 22339:0.5 22342:0.125 22391:0.333333 22471:0.25 22490:0.25 22524:1 22534:0.2 22642:0.4 22720:0.111111 22784:0.2 22894:0.333333 23112:0.142857 23212:0.333333 23213:0.2 23258:0.133929 23271:0.0909091 23289:0.6 23358:0.259259 23530:0.5 23535:0.333333 23569:1 23658:0.25 23856:0.5 23871:0.166667 24149:0.882353 24258:1 24373:0.142857 24421:0.1 
1 81:0.166667 135:0.125 213:0.2 232:0.4 554:0.1 781:0.142857 785:0.5 815:0.0909091 834:0.0769231 939:0.333333 1249:0.142857 1281:1 1334:0.25 1433:1 1446:1 1526:1 1527:1 1574:0.5 1614:0.125 1675:0.6 1716:0.25 1758:0.5 1863:0.333333 1980:0.125 2038:0.2 2103:0.333333 2345:0.04 2354:0.137255 2356:0.129032 2357:1 2373:0.16 2389:0.125 2441:0.0909091 2495:0.204545 2518:0.166667 2536:0.133333 2565:0.0625 2568:0.333333 2571:0.178218 2575:0.060241 2576:0.0263158 2715:0.133333 2722:0.333333 2732:0.254777 2741:0.2 2743:0.0384615 2788:0.5 2859:0.157233 2881:0.25 2908:0.5 2915:0.111111 2982:1 2997:0.5 3016:1 3017:0.166667 3229:0.25 3590:0.1 3628:0.097561 3651:0.0526316 3656:0.0769231 3720:0.0909091 3846:0.0666667 3852:0.137255 4007:0.333333 4078:0.25 4086:0.153846 4314:0.5 4330:1 4538:0.178571 4646:1 4776:0.888889 4934:0.333333 5079:0.142857 5126:1 5175:0.4 5270:0.5 5444:1 5455:0.636364 5551:0.25 5629:0.333333 5811:0.333333 5921:0.285714 5976:1 6005:0.125 6066:0.5 6078:0.0769231 6382:0.0277778 6512:0.5 6548:0.0434783 6552:0.0769231 6685:0.142857 6707:0.4 6719:0.333333 6851:0.333333 6867:1 6876:0.166667 7124:0.1 7208:1 7235:0.25 7278:0.2 7449:0.2 7479:0.0454545 7503:1 8104:0.346154 8108:0.125 8131:0.181818 8152:0.133333 8269:0.5 8308:0.181818 8395:0.333333 8458:0.4 8464:0.5 8509:0.5 8527:0.142857 8571:0.25 8793:0.333333 8810:0.133333 8943:1 9007:0.166667 9009:0.0909091 9116:0.25 9143:0.047619 9163:0.5 9322:0.333333 9344:1 9354:1 9382:0.142857 9436:0.333333 9441:0.2 9567:0.333333 9839:0.142857 9971:1 9995:1 10039:0.142857 10058:0.2 10123:0.0909091 10284:0.5 10418:1 10545:1 10708:0.0769231 10711:1 10857:1 10984:0.333333 11051:1 11132:0.125 11228:0.333333 11267:0.5 11301:0.0740741 11337:0.333333 11364:0.5 11371:0.0625 11434:0.2 11461:1 11470:0.25 11477:0.2 11478:0.133333 11488:0.333333 11519:1 11540:1 11641:0.0588235 11675:0.142857 11762:0.333333 12242:0.0666667 12344:0.166667 12367:0.198758 12540:0.166667 12544:0.151515 12631:0.0833333 12675:0.173913 12710:0.181818 12748:0.333333 12812:0.0714286 13018:0.142857 13125:0.125 13130:1 13290:0.5 13310:0.0555556 13318:0.5 13451:0.25 13526:0.333333 13672:0.111111 13674:0.5 13872:0.2 14010:0.5 14031:0.333333 14035:0.2 14100:0.2 14116:0.4 14218:0.5 14282:0.1 14323:0.222222 14336:0.1 14405:0.1 14436:0.333333 14567:0.208333 14735:0.263158 14780:0.125 14830:1 14856:1 14876:0.2 14913:0.4 14922:0.186441 15036:1 15038:0.193548 15069:0.333333 15109:0.5 15150:0.103448 15161:0.111111 15289:0.166667 15297:0.5 15440:0.333333 15528:0.333333 15733:0.166667 15734:0.333333 15938:0.25 15974:0.0833333 16160:0.333333 16400:0.333333 16404:0.111111 16495:0.5 16536:1 16762:0.0769231 16847:0.5 17039:0.25 17061:1 17063:0.166667 17202:0.2 17320:0.5 17693:0.416667 17701:0.0769231 17934:0.111111 18007:0.25 18158:0.333333 18214:1 18303:0.6 18313:0.333333 18475:0.333333 18808:0.5 18882:1 18891:0.5 19173:0.2 19219:1 19287:0.5 19321:0.5 19334:0.5 19436:0.333333 19575:0.0909091 19740:1 19748:0.166667 19778:0.357143 20100:0.5 20122:0.166667 20214:1 20244:0.333333 20266:0.2 20468:0.2 20530:0.25 20535:1 20665:0.5 20842:0.333333 20863:0.0909091 20932:0.666667 20990:1 21043:0.666667 21085:0.142857 21100:1 21124:0.166667 21168:0.25 21293:1 21334:1 21371:1 21401:0.5 21517:0.333333 21596:0.153846 21608:0.0952381 21807:0.222222 21830:0.333333 21859:0.5 21985:0.285714 22105:0.1 22148:0.3 22168:1 22318:0.333333 22342:0.125 22398:0.25 22510:0.25 22534:0.2 22613:0.2 22642:0.0666667 22768:0.5 23094:0.125 23140:0.0714286 23143:0.0666667 23164:0.5 23219:0.2 23258:0.116071 23358:0.333333 23380:0.2 23494:0.142857 23619:0.25 23871:0.166667 23991:1 24149:0.294118 24271:1 24333:0.2 24387:1 24392:0.2 24458:1 
1 81:0.302083 93:0.56 135:1 266:1 341:0.25 368:0.125 486:0.166667 698:0.2 781:0.285714 834:0.153846 988:0.3 1135:0.2 1183:0.0769231 1186:0.5 1234:0.333333 1747:0.111111 1927:0.333333 1973:0.24 1980:0.25 2026:1 2066:0.5 2081:0.15 2191:1 2295:0.5 2345:0.2 2354:0.0588235 2356:0.322581 2373:0.16 2389:0.0625 2495:0.363636 2518:0.666667 2536:0.333333 2555:0.166667 2565:0.3125 2571:0.267327 2575:0.060241 2576:0.210526 2609:1 2665:0.375 2692:0.206897 2704:0.2 2732:0.0636943 2741:0.28 2743:0.346154 2744:0.0277778 2750:1 2837:0.166667 2859:0.194969 2878:0.117647 2881:0.25 2915:0.277778 2975:0.2 3017:0.5 3229:0.25 3321:0.5 3353:0.0384615 3405:1 3428:0.25 3542:1 3555:0.166667 3628:0.170732 3645:0.0740741 3651:0.0526316 3656:0.0769231 3720:0.0909091 3846:0.2 3852:0.215686 3914:0.333333 3924:0.04 4258:0.5 4518:0.333333 4538:0.142857 4651:1 4758:0.0714286 4805:0.4 4942:1 5291:0.25 5297:0.2 5316:1 5530:1 5568:0.5 5620:0.2 5790:0.5 5838:0.5 5850:0.25 5866:0.5 5921:0.142857 6005:0.125 6052:1 6078:0.0384615 6102:0.166667 6134:1 6210:0.333333 6256:0.4 6382:0.111111 6505:0.2 6515:0.5 6552:0.0769231 6633:0.111111 6661:0.25 6663:1 6673:0.0526316 6685:0.142857 6709:0.166667 6730:0.5 6737:0.5 6771:0.333333 6792:0.2 6889:0.0769231 6960:0.1 7082:0.166667 7168:0.6 7178:0.25 7235:0.375 7266:0.0869565 7284:0.2 7307:0.2 7329:0.5 7406:0.181818 7757:1 7805:0.166667 7870:0.103448 7947:0.25 7994:0.222222 8108:0.375 8152:0.133333 8196:1 8412:0.333333 8504:0.166667 8520:1 8810:0.333333 8829:0.5 8977:0.2 8980:0.25 9007:0.0555556 9093:0.222222 9143:0.0952381 9158:0.25 9219:1 9302:1 9382:0.142857 9436:0.5 9685:0.333333 9699:0.25 9756:0.4 9845:0.166667 9976:0.25 10014:0.142857 10039:0.142857 10058:0.2 10474:0.166667 10478:0.5 10509:0.5 10659:1 10869:0.222222 10984:0.166667 11101:0.333333 11132:0.125 11135:0.857143 11327:0.333333 11357:0.125 11371:0.0625 11466:1 11477:0.3 11634:0.0212766 11641:0.0588235 11673:1 11675:0.285714 11692:0.166667 11778:0.333333 11852:1 11982:0.5 12081:0.125 12242:0.166667 12282:0.25 12283:0.125 12344:0.333333 12367:0.114907 12470:0.5 12542:0.2 12544:0.181818 12565:0.5 12661:0.5 12675:0.0434783 12859:0.125 12927:0.5 12946:0.5 12954:0.25 13110:0.285714 13163:0.333333 13341:0.111111 13564:0.333333 13660:0.25 13672:0.111111 13695:0.111111 13753:1 13804:0.333333 13872:0.4 13961:0.0666667 14009:0.166667 14035:0.6 14187:0.2 14282:0.1 14336:0.1 14365:0.333333 14384:0.125 14405:0.34 14496:0.2 14544:1 14567:0.166667 14573:0.125 14590:0.5 14619:0.333333 14725:0.166667 14748:0.8 14893:0.333333 14920:1 14922:0.20339 14925:0.1 15038:0.129032 15046:0.285714 15048:0.428571 15059:1 15126:0.125 15150:0.0344828 15161:0.333333 15263:0.666667 15498:0.333333 15536:0.142857 15887:0.5 15938:0.25 15974:0.166667 16155:0.0857143 16160:0.333333 16205:0.5 16404:0.111111 16489:0.25 16512:0.333333 16764:0.111111 16791:0.0909091 16842:0.5 16857:1 17058:0.5 17063:0.666667 17118:0.125 17311:0.0434783 17366:0.333333 17404:0.285714 17567:1 17581:0.25 17679:1 17693:0.0833333 17804:0.333333 17828:0.142857 17869:0.166667 17975:0.333333 18114:0.142857 18158:0.333333 18314:0.0833333 18510:0.5 18619:0.1 18725:0.5 18786:0.2 18901:0.2 18915:0.25 18940:0.125 18959:0.166667 19011:0.2 19112:0.5 19384:1 19427:0.166667 19705:1 19748:0.333333 19923:0.1 20070:1 20118:0.2 20122:0.166667 20266:0.2 20344:1 20358:0.666667 20375:0.25 20530:0.25 20533:0.25 20591:0.142857 20594:0.333333 20653:1 20674:1 20863:0.0909091 21264:0.2 21429:0.2 21459:1 21506:0.166667 21596:0.384615 21659:1 21727:0.0769231 21729:1 21811:0.5 21867:0.2 22148:0.1 22191:1 22642:0.133333 22679:0.142857 22720:0.222222 22803:1 23060:0.25 23094:0.125 23112:0.285714 23143:0.133333 23258:0.258929 23271:0.0909091 23289:0.4 23380:0.6 23401:0.333333 23665:0.333333 23735:0.5 23787:0.25 24149:0.117647 24166:1 24421:0.1 
1 63:0.666667 66:0.333333 81:0.145833 121:0.125 259:0.333333 377:0.1 509:0.2 528:0.2 585:0.5 586:0.25 691:0.666667 728:0.333333 799:0.333333 810:0.5 913:1 988:0.1 993:0.166667 1081:0.666667 1099:1 1145:0.25 1249:0.5 1299:1 1334:0.25 1370:0.111111 1441:1 1545:0.428571 1675:0.2 1711:1 1747:0.222222 1980:0.375 1999:0.333333 2038:0.2 2043:1 2087:0.636364 2103:0.666667 2107:0.714286 2189:0.0714286 2245:0.25 2246:0.25 2345:0.04 2354:0.137255 2356:0.0967742 2371:0.5 2373:0.36 2389:0.270833 2441:0.181818 2495:0.431818 2518:0.333333 2536:0.05 2559:1 2565:0.125 2568:0.333333 2571:0.366337 2575:0.120482 2576:0.105263 2702:0.25 2715:0.333333 2732:0.248408 2741:0.2 2743:0.115385 2788:0.5 2837:0.0833333 2859:0.301887 2878:0.0588235 2882:1 2898:0.333333 2915:0.0555556 3017:0.166667 3206:1 3353:0.153846 3453:1 3469:0.5 3494:0.5 3555:0.166667 3651:0.368421 3656:0.230769 3767:0.6 3846:0.0666667 3852:0.0196078 3924:0.28 3979:0.571429 4078:0.5 4086:0.0769231 4170:0.25 4176:1 4180:0.5 4213:1 4538:0.357143 4629:0.2 4657:0.666667 4661:0.142857 4678:1 4737:0.0833333 4752:1 4758:1 4776:0.111111 4805:0.4 4934:0.333333 5052:1 5066:1 5079:0.285714 5094:0.5 5106:0.25 5372:0.333333 5590:1 5620:0.2 5682:0.666667 5727:0.5 5850:0.25 5881:1 5921:0.142857 5935:1 5952:0.166667 6005:0.25 6042:0.4 6045:0.5 6073:1 6076:0.333333 6078:0.423077 6168:0.333333 6271:1 6368:0.176471 6376:0.333333 6382:0.111111 6448:0.4 6466:0.333333 6509:0.333333 6593:1 6787:0.5 6803:0.25 6828:1 6931:0.5 7065:0.25 7178:0.25 7235:0.1875 7258:0.25 7278:0.2 7282:0.5 7406:0.181818 7447:0.333333 7449:0.6 7479:1 7494:1 7870:0.275862 7884:0.5 8022:0.5 8028:1 8047:0.166667 8104:0.346154 8131:0.272727 8152:0.0666667 8296:0.5 8345:0.5 8493:1 8525:0.125 8527:0.0714286 8540:0.0555556 8545:0.142857 8554:0.25 8558:0.25 8573:0.5 8613:1 8686:1 8704:0.333333 8736:0.2 8810:0.133333 9009:0.0909091 9072:0.333333 9093:0.222222 9097:0.333333 9107:0.272727 9109:0.75 9116:0.25 9118:1 9143:0.238095 9311:0.111111 9382:0.285714 9436:0.166667 9467:1 9654:1 9839:0.571429 9845:0.333333 9874:0.2 10010:1 10058:0.4 10123:0.0909091 10188:1 10284:0.5 10763:0.333333 10893:0.4 10910:0.0666667 10956:0.5 11061:1 11132:0.125 11278:1 11371:0.625 11432:0.166667 11434:0.2 11476:0.125 11477:0.4 11478:0.0666667 11488:0.333333 11525:0.5 11540:0.5 11650:0.5 11675:0.714286 11680:0.25 11726:0.666667 11783:0.375 11795:0.5 11830:1 11851:0.25 11947:0.25 11960:0.333333 12204:1 12242:0.1 12342:0.111111 12344:0.166667 12352:0.0833333 12367:0.28882 12433:1 12436:0.2 12542:0.2 12544:0.454545 12595:0.2 12661:0.5 12675:1 12710:0.181818 12837:0.333333 12937:1 13035:0.4 13064:0.2 13118:0.333333 13120:1 13125:0.25 13311:1 13341:0.222222 13342:0.111111 13371:1 13404:0.111111 13448:1 13492:0.333333 13526:0.333333 13549:0.166667 13627:0.333333 13674:0.5 13742:1 13855:0.111111 13872:0.2 13895:0.5 13961:0.0666667 14005:1 14022:0.5 14035:0.2 14209:0.3 14264:0.4 14269:0.5 14384:0.125 14390:1 14405:0.06 14411:0.428571 14428:0.5 14471:0.25 14506:0.5 14567:0.208333 14673:0.333333 14682:0.5 14735:0.157895 14745:1 14792:1 14838:0.142857 14845:0.5 14865:0.25 14913:0.5 14917:0.4 14922:0.254237 14925:0.4 15038:0.193548 15046:0.142857 15049:1 15145:1 15150:0.103448 15164:0.5 15170:1 15320:0.1 15384:0.25 15389:0.333333 15441:0.5 15452:0.571429 15537:1 15589:0.5 15590:0.333333 15685:0.5 15698:0.2 15727:0.666667 15734:0.333333 15754:0.4 15831:0.25 15866:0.5 15960:0.333333 15976:1 15977:1 16008:1 16230:1 16404:0.111111 16416:1 16456:1 16461:1 16549:0.25 16582:0.25 16585:0.333333 16610:0.5 16845:0.0909091 17035:1 17118:0.125 17154:1 17202:0.2 17361:0.333333 17385:0.166667 17426:0.666667 17608:0.3 17632:0.333333 17660:0.25 17673:0.0714286 17690:0.333333 17693:0.25 17701:0.0769231 17838:0.25 17849:0.0434783 17885:0.5 18007:0.5 18149:0.111111 18288:0.0833333 18303:0.8 18313:0.222222 18326:0.25 18474:0.2 18546:0.25 18573:1 18659:0.5 18713:0.5 18727:1 18768:0.5 18901:0.2 18915:0.25 18940:0.25 19093:1 19100:1 19104:0.333333 19178:0.166667 19358:0.25 19369:1 19709:1 19736:0.25 19778:0.0714286 19896:1 19900:1 19923:0.1 19932:0.125 19970:1 20266:0.2 20310:0.5 20313:1 20488:1 20530:0.25 20591:0.0714286 20612:0.5 20687:0.2 21058:1 21068:0.5 21124:0.166667 21198:0.0625 21204:0.5 21337:1 21338:1 21404:1 21429:0.1 21506:0.166667 21537:0.25 21565:0.2 21704:0.111111 21723:0.0666667 21991:0.142857 22010:0.166667 22089:0.333333 22148:0.5 22163:0.333333 22318:1 22342:0.125 22475:0.2 22490:0.25 22577:1 22613:0.4 22626:1 22638:0.25 22659:1 22701:0.666667 22767:0.333333 22800:1 23035:0.5 23112:0.428571 23121:0.2 23125:0.5 23143:0.333333 23146:0.5 23187:0.5 23213:0.2 23219:0.2 23258:0.214286 23338:0.166667 23358:0.481481 23359:0.2 23494:0.285714 23511:1 23571:0.2 23601:1 23714:1 23763:0.5 23916:0.25 24054:1 24062:0.030303 24149:0.235294 24315:0.5 24392:0.2 24430:1 24457:1 
1 1082:1 2038:0.2 2373:0.08 2495:0.0454545 2715:0.133333 2732:0.0318471 2743:0.0769231 2744:0.0555556 2859:0.0377358 2915:0.222222 3098:1 3181:1 5093:0.285714 5397:1 5611:1 6030:0.2 6128:0.5 6358:0.153846 7487:0.4 7717:1 7870:0.137931 9158:0.25 10140:1 11371:0.125 11731:0.333333 12367:0.0217391 14922:0.0338983 14925:0.2 15346:1 17494:0.333333 18015:0.666667 18313:0.444444 18863:1 19355:0.5 19923:0.2 22475:0.4 23258:0.0357143 23358:0.0740741 
1 21:0.5 53:0.285714 76:0.0909091 81:0.302083 259:0.666667 290:0.25 293:0.25 429:1 516:1 874:0.5 1208:0.111111 1290:1 1370:0.111111 1439:1 1545:0.142857 1649:0.333333 1758:0.5 1856:0.333333 1874:0.333333 2033:1 2217:0.2 2271:0.2 2274:0.5 2286:0.285714 2345:0.04 2354:0.0588235 2356:0.0322581 2373:0.12 2389:0.104167 2495:0.272727 2536:0.0666667 2571:0.237624 2575:0.0240964 2576:0.0526316 2697:1 2715:0.0666667 2732:0.0955414 2741:0.24 2743:0.0769231 2847:0.2 2859:0.125786 2907:0.5 3072:0.142857 3115:0.166667 3218:1 3469:0.5 3523:1 3590:0.3 3628:0.0487805 3651:0.105263 3656:0.153846 3759:0.0454545 3841:0.285714 3846:0.0666667 3852:0.0784314 3924:0.12 4086:0.230769 4101:0.181818 4241:1 4538:0.178571 4547:1 4569:0.25 4592:1 4650:0.166667 4690:0.5 4737:0.0416667 4805:0.2 5141:0.25 5291:0.25 5345:0.166667 5405:1 5551:0.25 5685:0.5 5731:0.333333 5972:0.0625 6005:0.25 6021:0.125 6030:0.2 6358:0.0769231 6376:0.333333 6377:1 6382:0.166667 6467:0.2 6601:0.125 6652:0.181818 6917:1 6960:0.1 6990:0.25 7124:0.1 7207:0.333333 7235:0.0625 7343:0.5 7382:1 7479:0.181818 7576:1 7870:0.0344828 8104:0.0769231 8108:0.25 8241:0.166667 8251:0.4 8314:1 8325:0.2 8583:0.4 8645:0.666667 8651:1 8677:1 8810:0.2 8977:0.4 9009:0.272727 9292:1 9304:1 9311:0.222222 9382:0.0571429 9430:1 9446:0.333333 10123:0.181818 10161:0.25 10240:0.5 10277:1 10511:0.5 10868:1 11134:1 11271:1 11301:0.037037 11371:0.125 11395:0.25 11478:0.0666667 11575:1 11597:1 11657:0.5 11703:0.5 11932:1 12040:1 12185:0.5 12186:0.5 12197:0.1 12344:0.166667 12367:0.180124 12544:0.0909091 12631:0.0833333 12675:0.0434783 12710:0.0909091 12938:1 13146:1 13174:1 13248:0.5 13432:0.5 13524:0.2 13594:0.25 14035:0.2 14100:0.4 14233:0.333333 14356:0.166667 14405:0.18 14516:1 14567:0.25 14609:0.333333 14922:0.169492 14925:0.2 14990:1 15022:0.5 15038:0.0967742 15048:0.142857 15289:0.166667 15366:1 15420:1 15424:0.142857 15486:0.666667 15622:0.5 16162:0.461538 16313:0.111111 16342:0.25 16404:0.111111 16476:0.5 16609:0.166667 16658:0.333333 16784:0.5 16803:1 17018:0.0833333 17404:0.285714 17509:0.2 17639:0.333333 17650:1 17690:1 17883:0.333333 18309:0.666667 18460:1 18491:0.117647 18766:1 18946:0.5 18959:0.166667 19000:0.142857 19126:0.5 19129:0.5 19235:1 19240:0.0714286 19583:0.333333 19688:1 19766:1 20027:0.111111 20099:0.5 20113:0.0909091 20141:0.2 20486:0.25 20528:1 20582:0.1 20608:1 20626:0.5 20736:1 21442:0.2 21506:0.166667 21658:1 21940:0.666667 22086:0.5 22148:0.2 22163:0.333333 22342:0.125 22369:0.2 22510:0.25 22679:0.142857 22768:0.5 22824:0.166667 23104:0.666667 23112:0.428571 23143:0.2 23213:0.0666667 23258:0.142857 23435:0.142857 23611:1 23651:1 23776:0.5 23825:1 23941:0.4 24059:0.25 24149:0.117647 24168:0.333333 24446:0.25 
1 76:0.0909091 81:0.270833 215:0.75 232:0.6 290:0.5 582:0.25 585:0.5 674:1 721:1 971:0.5 1208:0.111111 1211:0.166667 1269:0.5 1310:0.5 1538:0.5 1545:0.142857 1675:0.4 1877:1 1980:0.125 2014:0.333333 2100:1 2217:0.2 2237:0.333333 2345:0.12 2354:0.176471 2356:0.0967742 2373:0.36 2389:0.0833333 2495:0.318182 2518:0.166667 2536:0.0166667 2565:0.1875 2571:0.148515 2575:0.13253 2576:0.342105 2715:0.2 2732:0.159236 2741:0.2 2743:0.153846 2744:0.0277778 2774:1 2837:0.0833333 2859:0.132075 2877:0.04 2982:1 2985:0.5 3108:0.333333 3135:1 3151:1 3211:0.125 3221:0.25 3353:0.0769231 3428:0.75 3497:0.0714286 3651:0.210526 3656:0.0769231 3675:0.333333 3759:0.181818 3914:0.333333 4086:0.307692 4128:0.333333 4309:0.0227273 4377:1 4443:1 4538:0.0357143 4657:0.333333 4737:0.125 4743:0.166667 4744:1 4758:0.0714286 4810:0.333333 4918:1 5225:1 5241:1 5372:0.333333 5386:0.125 5453:0.5 5843:1 5850:0.25 6078:0.384615 6116:0.5 6168:0.166667 6176:0.5 6212:0.25 6225:0.2 6368:0.0588235 6376:0.333333 6468:1 6960:0.2 6998:1 7013:0.5 7022:0.222222 7124:0.4 7188:1 7235:0.0625 7367:0.2 7510:0.5 7621:0.5 7792:1 7805:0.166667 7870:0.0689655 8131:0.0909091 8137:0.5 8152:0.0666667 8520:1 8521:1 8540:0.111111 8558:0.25 8583:0.2 8614:0.25 8670:1 8675:1 8810:0.0666667 8930:1 8967:0.166667 8968:0.333333 8990:0.5 9109:0.25 9143:0.142857 9163:0.5 9235:0.166667 9382:0.114286 9436:0.166667 9457:1 9463:0.25 9515:0.5 9519:0.5 9721:0.333333 9749:1 9761:0.5 9874:0.0666667 10123:0.0909091 10168:0.0526316 10325:0.5 10413:0.4 10446:0.25 10448:0.25 10469:1 10614:0.2 10910:0.0666667 10956:0.25 11226:0.25 11427:0.5 11434:0.1 11477:0.2 11478:0.0666667 11488:0.333333 11540:0.5 11560:0.142857 11634:0.0851064 11675:0.142857 11808:1 11851:0.25 12028:0.25 12088:0.5 12314:0.333333 12330:1 12342:0.111111 12344:0.166667 12352:0.0833333 12367:0.167702 12544:0.030303 12656:1 12675:0.0434783 12812:0.142857 12824:0.5 12878:1 13094:0.5 13096:1 13111:0.2 13125:0.25 13164:0.0833333 13245:0.5 13310:0.222222 13341:0.111111 13426:0.333333 13523:1 13524:0.1 13660:0.25 13777:0.5 13778:0.5 13868:1 14000:0.25 14002:1 14023:0.333333 14037:1 14082:0.125 14405:0.02 14411:0.142857 14436:0.166667 14523:0.2 14538:0.5 14601:1 14612:0.333333 14735:0.210526 14865:0.25 14913:0.2 14917:0.2 14922:0.254237 14925:0.1 14927:0.25 15038:0.193548 15046:0.142857 15048:0.142857 15069:1 15111:0.333333 15147:0.333333 15150:0.103448 15193:0.5 15215:0.2 15219:0.333333 15252:0.5 15358:0.0909091 15372:0.166667 15512:0.5 15586:0.142857 15715:0.333333 15809:1 15894:0.5 15950:0.5 15974:0.0833333 16123:0.333333 16211:0.25 16214:0.666667 16317:0.333333 16387:0.333333 16404:0.111111 16568:0.666667 16589:0.75 16658:0.333333 16946:0.25 17018:0.0416667 17118:0.125 17194:0.0588235 17291:0.25 17311:0.0434783 17326:0.25 17347:0.5 17385:0.166667 17501:1 17549:1 17693:0.166667 17927:0.5 18015:0.333333 18286:1 18376:0.333333 18491:0.0588235 18732:0.5 18815:0.333333 18873:0.5 19002:0.5 19104:0.166667 19178:0.166667 19228:1 19238:0.5 19240:0.0714286 19473:1 19575:0.272727 19612:1 19923:0.2 19929:0.5 20027:0.111111 20180:1 20486:0.5 20500:0.5 20530:0.25 20745:1 20932:0.333333 21015:0.5 21029:1 21068:0.5 21124:0.166667 21134:1 21148:1 21168:0.25 21401:0.5 21506:0.333333 21564:0.142857 21565:0.2 21608:0.0952381 21704:0.111111 21748:0.25 21764:0.0526316 22004:1 22148:0.05 22260:0.25 22318:0.166667 22393:0.666667 22475:0.2 22534:0.2 22679:0.142857 22697:0.142857 22704:0.5 22768:0.5 23067:0.166667 23219:0.2 23258:0.1875 23271:0.181818 23283:0.142857 23358:0.185185 23544:0.0666667 23690:0.333333 23812:1 23853:0.5 23964:0.2 23970:0.5 24045:0.5 24089:1 24099:1 24149:0.0588235 24212:0.333333 24371:0.5 24392:0.4 
1 81:0.0729167 490:0.666667 2077:1 2356:0.0645161 2495:0.0227273 2533:0.307692 2715:0.0666667 2732:0.0636943 2859:0.0125786 2877:0.08 3249:0.222222 3651:0.157895 3924:0.12 4097:1 4657:0.666667 4810:0.666667 5164:1 6085:0.142857 7207:0.666667 7479:0.0909091 7805:0.333333 8239:1 8810:0.133333 8999:1 9232:0.166667 9382:0.114286 11171:0.4 11301:0.0740741 11337:0.666667 11578:0.2 12242:0.0666667 12367:0.00931677 12608:1 12710:0.181818 12969:1 13310:0.111111 15719:0.166667 16260:0.5 16512:0.666667 19748:0.333333 20141:0.2 21320:0.5 21512:0.666667 22153:0.285714 22679:0.285714 23258:0.0178571 23268:1 24059:1 24149:0.117647 
1 53:0.142857 81:0.0729167 121:0.125 625:0.2 883:0.166667 913:0.222222 993:0.166667 1012:1 1203:1 1385:0.25 1448:1 1646:0.25 1935:0.333333 2141:0.5 2265:0.5 2345:0.12 2354:0.0588235 2356:0.0645161 2389:0.125 2441:0.0909091 2495:0.113636 2571:0.108911 2575:0.0843373 2576:0.0263158 2732:0.089172 2815:0.333333 2859:0.0628931 2908:0.5 2940:1 2993:0.111111 3097:0.333333 3321:0.5 3322:0.333333 3334:1 3438:0.5 3651:0.0526316 3805:0.5 3836:0.0833333 3852:0.0196078 3924:0.08 3985:1 4223:0.142857 4309:0.0227273 4511:0.5 4538:0.0714286 4743:0.166667 4784:0.5 4934:0.333333 5043:1 5451:0.142857 5465:0.1 5551:0.25 5564:0.0625 5921:0.142857 6338:0.333333 6339:1 6358:0.769231 6382:0.166667 6990:0.25 7070:1 7124:0.1 7204:0.125 7235:0.0625 7307:0.2 7480:0.25 7713:0.5 7744:0.666667 7870:0.0344828 8104:0.0769231 8375:1 8412:0.666667 8810:0.133333 8938:1 9339:0.333333 9359:0.25 9374:1 9382:0.0285714 9471:0.5 9867:0.25 11181:1 11254:0.25 11301:0.148148 11359:0.142857 11427:0.5 12027:0.5 12242:0.0666667 12367:0.0714286 12511:0.333333 12544:0.0606061 12595:0.2 12647:0.333333 12710:0.363636 13153:0.166667 13280:0.125 13310:0.111111 13685:1 14405:0.04 14567:0.125 14735:0.0526316 14922:0.101695 15038:0.0322581 15150:0.0689655 15215:0.2 15309:1 15410:1 15536:0.142857 15653:0.333333 15960:0.166667 16162:0.0769231 17018:0.166667 17644:0.333333 17975:0.166667 18314:0.0833333 18491:0.0588235 19104:0.166667 19129:0.25 19337:0.5 19355:0.75 19398:0.2 19604:0.2 19701:0.5 19748:0.166667 20113:0.0909091 20123:0.125 20969:1 21158:0.333333 21212:0.5 21474:0.5 21539:1 21608:0.047619 21704:0.111111 21742:1 22047:1 22148:0.25 22218:1 22260:0.25 22341:0.2 22447:0.166667 22534:0.2 22552:1 22615:0.285714 22884:0.5 23112:0.142857 23143:0.0666667 23212:0.666667 23258:0.0535714 23358:0.037037 23606:0.333333 23716:0.333333 23725:0.25 24131:0.25 24235:1 
